{"b1":{"v":1,"dim":[20,1],"data":[0.0065397103,0.006107916,0.0,-0.00022079772,0.004531524,0.0021097248,0.003382887,0.004374429,-0.0003541034,0.01252572,-0.002220001,-0.0000924045,0.007333217,0.0,0.008526643,0.0000014576699,0.0038604501,0.00806031,-0.0039453655,-0.0024294031]},"b2":{"v":1,"dim":[7,1],"data":[0.0139532015,-0.009633042,0.018982984,0.016374713,0.006925748,0.014047724,0.019014424]},"W3":{"v":1,"dim":[5,7],"data":[0.05714252,-0.19495597,-0.43726927,0.08628458,0.0926576,0.42436782,0.1293935,-0.32080105,0.40384364,0.6383725,-0.13908081,-0.58028245,0.259665,0.30167592,0.11713741,-0.4425558,0.24862243,0.5339842,-0.21315937,-0.26417866,-0.5161252,0.42102093,0.20688987,0.27178717,0.09349924,0.5380834,-0.071945794,-0.12398863,0.057076,0.49940136,0.504213,-0.32866514,-0.5114122,-0.15381171,0.29183564]},"W4":{"v":1,"dim":[1,5],"data":[0.1299721,-0.8819017,0.5030674,0.27118865,-0.36541316]},"b3":{"v":1,"dim":[5,1],"data":[0.019484937,0.025717223,0.04251503,0.011679867,0.010815909]},"b4":{"v":1,"dim":[1,1],"data":[0.015660759]},"W1":{"v":1,"dim":[20,12288],"data":[-0.0027521441,-0.00029214204,-0.002469853,0.005057905,0.0036655604,0.0043597873,-0.007403733,-0.00046286336,-0.006482244,-0.0101220105,-0.0036545563,-0.00093214505,0.0016412471,0.0046564257,0.00006013889,0.0029792625,0.0029732725,-0.0054154866,-0.0043337364,-0.0051536364,-0.0059548267,0.005445427,0.0039931424,-0.008139742,-0.009011641,-0.0062558837,-0.007457601,0.0074550183,0.004164186,0.0073406193,-0.0071849586,0.0019099736,0.0025609315,-0.0005659434,-0.0057635284,-0.0078094215,0.008137499,0.005926663,-0.008048588,0.0072527863,0.009172409,0.007479187,-0.0073050237,-0.0067457273,-0.0019977794,-0.0022702499,-0.0032805097,0.0010161828,-0.0068440563,-0.0018420038,0.00041396986,-0.0012470827,-0.0027257318,-0.0010962868,-0.0062178676,0.005284835,0.0010823744,0.005857098,0.009061148,0.004769575,-0.006949492,-0.0022659113,0.010268822,-0.002668718,-0.0017517947,0.008281444,-0.0018264229,0.007043545,0.0034778907,0.006234397,0.008368149,0.0021987997,0.0027842436,0.010712691,-0.0043702116,-0.004362456,-0.0019321756,0.004699988,0.006082276,0.012005784,0.0059496085,-0.0018696103,-0.005320819,-0.0013311465,-0.0039478834,0.0015143711,-0.002917444,-0.0033764679,-0.0037300317,-0.0067517795,-0.0039036323,0.00023994768,0.004798179,0.008459674,0.007833949,-0.006299589,0.00029507,-0.004922757,0.0027819152,0.008226362,0.00679505,0.00733421,-0.006698054,-0.00581805,0.00018556445,0.006612596,0.0016558229,0.00023143187,-0.0021550218,0.00084130827,0.010290804,0.00009275813,0.007157468,0.011092717,0.008780478,0.008900385,0.005290684,-0.0031062537,0.0033362682,0.0048459526,0.0037550926,-0.0025961471,-0.006468529,-0.0024756733,-0.0017482261,0.003628796,-0.0013374992,-0.009055559,0.000858315,-0.009169541,-0.003997847,-0.009615348,0.000029073757,0.0024278597,0.0020200312,0.0020265013,-0.0054838792,-0.0005151237,-0.0041886894,0.0037549376,-0.008207377,0.007845676,0.00044719427,0.002328493,0.009118936,-0.0037737398,0.0065274,0.0073597995,0.006426827,-0.003916563,0.0030486987,-0.0016639649,-0.004656834,-0.005830743,0.011113537,0.008518268,0.0072267274,0.0024661643,-0.0005148285,0.0021542914,0.00030084958,0.008662281,0.0029242977,-0.0020262147,-0.00064997544,-0.007950742,-0.0052714474,0.007520662,-0.0042681755,0.011942608,-0.0010275135,-0.00013667298,-0.0038000096,0.009096439,0.0048489175,-0.0011802795,0.0056104586,-0.00699848,0.008907957,0.0008255692,0.00022014657,-0.0042034388,-0.0032164387,-0.004793062,0.0017237007,0.0032116324,-0.0042467765,0.0076122177,0.0050791884,0.002270268,0.009048851,-0.00075017556,0.0023981812,-0.0010061975,0.0012047142,0.0006621983,-0.0025811656,0.005272902,-0.008806762,-0.0031895784,0.0022221277,0.0035493833,-0.0009180466,0.0046229605,-0.0060072266,0.0022254738,-0.0012189633,-0.00973009,0.0053659356,0.0065922188,-0.00075506995,-0.004126567,0.0048462185,-0.0035222666,-0.008323538,0.0021760317,-0.004741234,-0.005171374,0.002480776,-0.0036844243,-0.002063477,-0.0060590277,0.0021908968,0.0030251758,-0.005238325,0.003549881,-0.0024374272,-0.0031959233,0.0036244367,-0.0038731236,0.0061565903,0.00408552,0.008654448,0.006122203,-0.008146714,-0.0014519732,0.005691303,0.0013249358,-0.0022145077,0.0068018036,-0.0051444243,0.006851131,-0.008051518,0.008505065,0.0021658577,-0.0018605368,-0.004676047,-0.0038923337,-0.0066024526,0.0014569751,-0.0064852703,0.008186553,-0.0069441423,-0.0035535197,0.006100925,-0.0024660379,0.0109638935,-0.0033178164,0.00092159264,0.009561866,0.0020409015,-0.0019219612,0.00006243805,-0.0015991989,-0.0018888727,0.008245842,0.0026367945,-0.006741911,0.008438037,-0.0054381923,0.008041467,-0.0039409837,-0.00013758875,0.0044106427,-0.004006977,0.007318341,-0.0023331104,0.0006622965,0.00056554977,0.008827232,0.008110917,-0.0066082203,0.005108512,0.001004264,-0.0023351351,-0.0049213055,-0.0008786049,0.0023178095,-0.0068407133,-0.002243111,-0.0010794735,-0.0071675163,0.0041276,-0.004065701,-0.0035844499,0.00084912253,0.0035139755,-0.0015747894,-0.005605131,-0.0022514584,-0.00255117,-0.0013418872,-0.002539518,0.0014043784,0.0075200982,-0.0027433112,0.0017993724,-0.0022031053,-0.005138157,0.009719496,-0.005042857,0.0022271096,-0.006370006,0.0031081073,0.000025881189,-0.007768171,-0.008800058,-0.00088096096,0.0034647086,-0.0030690806,-0.00068697537,0.0041813175,0.0033761337,-0.0013139069,0.0014134361,0.0036457018,0.0063145016,-0.0007127803,-0.0043048686,0.00931117,0.004736421,-0.005597623,0.0004888416,-0.0066909418,0.0100983195,-0.0010514358,-0.00094769674,-0.003875324,0.010279028,-0.0029994638,0.009191039,-0.0041340496,0.0018382904,0.010107385,-0.00084833446,-0.0031200582,0.011944467,0.008879391,0.0012641158,0.009159412,0.0039993897,0.0048706443,-0.0014082235,0.0050205323,-0.004975176,0.0101251835,0.0071436404,0.009208427,0.009207855,-0.0019379961,0.008721171,0.0009913818,-0.0019583863,-0.005810076,0.0031344453,0.0014548682,0.003044706,0.0027120728,0.009819724,-0.008177743,0.0031139564,-0.00051269925,-0.004690376,0.008824613,0.00013011304,0.0037751799,0.008965277,-0.0039574136,0.0090908315,-0.0015888913,-0.0059634377,-0.0040164697,0.006709711,-0.0010423446,-0.0038386974,-0.005433949,-0.0072274595,-0.005949243,-0.00006498535,-0.008429922,0.0067508137,0.003907065,0.0010692059,-0.006320119,-0.0028172776,-0.0043364754,0.0020710714,0.0047377977,-0.009676872,0.005103229,0.004935732,0.006114434,0.001785693,0.0018930569,-0.007369874,0.0027855288,0.0068143606,-0.004238837,-0.0008458502,0.004502371,0.008659896,0.004205113,0.004150998,-0.006368459,0.004342191,-0.003899499,-0.0026449482,-0.008804073,-0.000763998,-0.0041404245,-0.0033996108,0.0026863539,0.0062118703,-0.00389296,-0.005680881,0.002254443,-0.0031251176,0.000723425,-0.0061387275,0.0036910402,-0.00045167707,0.0067584543,0.003452294,0.0027514996,-0.007860268,-0.002823523,0.005478079,-0.00303887,-0.0035582029,-0.005028197,0.009357139,-0.0053313747,0.0037919441,0.008092714,0.006293979,0.0051354007,0.0037827205,0.0042022634,0.0017783875,0.0046252375,0.008914546,0.009875721,-0.0021112924,-0.0010020637,0.0030816165,0.007362859,-0.005805757,-0.0043148873,0.001304422,-0.0012904896,0.006559941,0.0027451806,0.006488423,0.00047428187,0.01033609,0.0053094137,-0.005898031,0.003768192,0.0058595315,0.004238662,0.0034848135,0.008226514,-0.0056652077,0.007291029,0.00057978294,0.0066228164,-0.006361517,0.009308929,0.006454273,0.0059611937,0.0013330351,0.0051430073,0.0014567642,-0.0055569145,-0.0038572177,-0.006070695,0.0035183788,-0.005994079,0.00667546,0.009709899,0.0062776995,-0.0033956782,-0.0043508955,-0.00518414,-0.0054785423,-0.0073730187,0.009868117,-0.006216652,0.0017307536,-0.002457383,-0.0071544903,0.0014315217,-0.007426916,0.008829909,0.007281527,0.009262578,-0.00725601,-0.008930805,0.0029281606,0.003624943,0.0038336313,-0.0073033976,0.0015918037,0.0038029114,-0.0055944,0.0043724263,0.007825955,0.0066759554,0.00034438632,0.009005234,0.005796692,-0.0037468693,0.003032176,0.009339461,0.005448176,0.0071169455,-0.0038107464,-0.00044513503,0.008251911,0.0095615685,0.007561373,0.0063151172,0.0023768705,-0.00009365641,0.0061699245,-0.0014503667,0.0042660516,0.0050599105,0.010826894,0.010269286,0.001857777,0.0050938292,-0.002573636,-0.002172916,0.0018502738,0.0010637989,0.006052974,-0.005636149,-0.0052041262,0.008348252,-0.0004331204,0.00056103425,0.007886426,-0.001978711,0.003225029,0.00005180597,0.007967975,0.004376225,-0.0072576823,0.006679613,-0.0060246713,0.0017247116,-0.0030916573,0.0055899997,0.006548124,0.0027707848,-0.0023610836,0.0029128194,0.0072027314,0.004337151,-0.008286193,0.0019607996,0.008877201,-0.0027126132,0.003323868,-0.005088121,-0.0013684639,-0.003771417,0.005894805,0.004179252,0.0053929924,0.0031360078,0.0038186223,-0.008680079,0.00017989638,-0.0072833197,-0.006596582,0.0018021307,0.0015132868,0.0072198613,0.0043332204,-0.008391616,0.0076272236,-0.008445645,-0.0034195764,0.0043032346,-0.00012514356,-0.0031750095,0.002794365,-0.00857643,0.004573877,0.004430799,-0.0030772851,-0.001714632,-0.006736642,0.0018125495,-0.0013143895,0.0010245516,0.0057355687,-0.0017751443,0.00049092015,-0.005759675,-0.0011621903,-0.005063407,0.0021763332,0.003149149,0.0036306025,-0.0005466953,0.0073055085,0.0026350594,-0.0015586189,0.0032368586,-0.003598204,-0.003938616,0.0036469668,0.0096309595,0.005296283,0.0015382041,0.004952584,0.004263252,0.0065421993,-0.007405287,0.006627014,-0.008299129,-0.0021901801,0.0088199545,0.0032146254,-0.0031888664,-0.002790849,0.0064080977,-0.0010489979,-0.00096368004,-0.00029108193,0.008451202,0.007697326,0.0070230435,0.0025297822,-0.0021119432,-0.00069578545,-0.00035620463,-0.002721097,0.0022788194,0.00004006341,0.009710333,0.0036745078,-0.005003224,-0.0030603886,-0.0045451964,-0.0027563293,0.0041632527,0.0071778526,-0.0058017545,0.0023885318,-0.0032117523,-0.0038456537,0.00081710675,-0.0038985617,-0.0070870663,-0.004471464,0.002155367,-0.0012163259,0.0058527067,0.0046687173,-0.00035091562,-0.007113108,-0.004014732,-0.0042666434,-0.0017157452,-0.0002789917,-0.003210925,0.0053465595,-0.001134369,0.000013939447,-0.0031367538,0.0047487025,-0.00843175,-0.00034712537,-0.008318456,-0.00048542788,0.00038773933,-0.0049695633,0.007954416,-0.0071261562,-0.0047464464,0.0021096156,-0.00068688457,-0.004731025,0.004070459,-0.007309174,0.0072164237,0.005534576,-0.0015141388,-0.0023215252,0.001970499,0.00095455203,-0.0024413823,0.005098204,0.0009950394,0.0025748052,-0.003129727,-0.006770583,-0.007545911,0.0074424343,0.0048505,0.003185433,0.0003032644,-0.000041809883,0.009527563,0.004981174,-0.005333749,-0.0047116415,0.002399587,0.00854915,0.0069327783,-0.004932848,-0.0008097564,-0.005683846,-0.00078049384,0.0062115844,0.0037524414,0.0008778897,0.0037521897,-0.0041709687,0.013131974,0.0023804482,-0.0045688534,0.010888503,0.007945793,-0.0018828332,0.0012182086,-0.0063689146,0.008164107,0.012748855,0.011104931,0.009504623,0.0028969382,0.0038559448,-0.000411604,0.012575044,0.0035488373,-0.0077238823,0.0016368965,-0.0025513538,-0.008648696,0.0029273338,-0.0042667366,-0.0028975336,0.00065257744,0.005404199,-0.0068774205,0.001773484,-0.00036920502,-0.0076219696,0.0001675607,0.008874022,0.00087852654,0.009746327,-0.0068555935,-0.0054661282,0.004533488,-0.005246351,0.0074052573,0.0053895996,0.0023988828,-0.010252138,0.0020847465,-0.004968706,0.0048912084,-0.00036353167,0.006599493,0.0032622325,-0.0034460737,-0.0033291867,-0.0005209531,-0.0032838194,-0.0022186679,0.0020600911,-0.008117996,-0.003913517,-0.004836153,0.0038406297,-0.0023016287,0.006245475,0.008539816,-0.008600334,0.005620042,0.005444326,0.0027240773,0.0005665459,0.0029751996,0.00049638184,-0.0064593987,-0.0020019298,-0.006584062,0.0032104524,0.0046032597,0.009493564,-0.0009870451,0.008881949,0.007134319,-0.0041087833,-0.0027117413,-0.00024347781,-0.0029455698,0.009432768,0.0031177811,-0.006269361,0.008083463,-0.0052398792,-0.008818671,-0.0068359794,-0.008131274,-0.0003045084,-0.0056892512,-0.0028479395,-0.006435889,-0.0012489993,0.0018195757,-0.0071478607,0.008621979,-0.0009407874,0.003670052,0.005388818,-0.007406642,-0.00048079257,0.009467783,0.010770283,0.0024670432,-0.00030488253,-0.0060384693,-0.0073264567,-0.0022025853,0.007495743,-0.00027509936,0.0078034587,0.006857423,0.0045719044,-0.0070670336,-0.002972878,0.008156086,-0.0059807436,0.000111890135,-0.0040455116,0.00665384,0.0061818305,0.0017236707,0.004549221,-0.002279401,0.003955247,-0.00449666,-0.0074498155,0.008848873,-0.0058991853,-0.0040569557,-0.0027584075,0.0057862136,0.006131867,0.0040029106,-0.0003686076,-0.007033385,0.0061253393,-0.004717345,-0.008554956,0.000118981836,0.0040388433,0.00032227585,0.006570802,-0.000028305241,0.002570615,0.0044038487,-0.00047828525,-0.0015691386,0.0038604983,-0.0018871475,0.0083988765,-0.006818406,0.007810766,0.0067188093,0.003777203,0.00885631,-0.007576447,0.007201474,0.000118357464,-0.008286002,0.0063008247,0.005371857,-0.0044173743,0.00843147,-0.007942763,0.0033942193,0.0011652434,-0.0037682897,-0.0041966094,0.0022549063,-0.0066234698,-0.0037707554,-0.001698199,0.009542628,0.005851349,0.0033837347,-0.0029109986,0.004404818,0.007628405,-0.0006856183,-0.0003413466,-0.003154135,0.012456613,0.0006076529,0.008578712,0.0021847992,0.0017364054,0.0041279946,0.0010708366,0.011045054,-0.006191944,0.0069099916,0.010003345,-0.0013902874,0.005159577,-0.0011257074,0.0015847973,0.005304809,0.0045762914,-0.0060499823,0.011964683,-0.0062361043,0.0035719208,0.007326658,-0.0050221365,0.007659425,0.0012921107,0.0009950523,-0.0027215893,0.009353227,0.0084232325,-0.0030685372,-0.0030694362,0.0065014884,0.0049301367,0.00033651287,-0.0013646651,0.004715007,0.007708125,0.0015886838,-0.003815104,0.0048331963,-0.0050291596,0.005713157,0.012147616,0.0024612187,0.0069509046,0.0014305152,-0.0042533274,0.0071761655,-0.0020254124,0.0068444135,0.006163735,0.0076445173,0.009544095,0.0011406206,0.0044336324,0.004588491,0.00070054654,0.007492663,-0.0007812147,-0.008450248,-0.006146404,-0.0024865672,-0.0027801248,0.0002387452,0.0015769991,0.0036720685,-0.004823014,0.00088602037,-0.0012798506,0.0041202083,-0.008163417,0.006922606,0.0031338986,0.0013394319,-0.005506195,0.003542917,-0.0007993932,-0.0062887035,0.0019771357,0.005579923,0.008714461,0.008413488,0.010361238,-0.005682974,-0.0051689744,0.009775673,-0.0009835331,-0.005412744,-0.0059120515,0.0005760717,0.0033285161,0.00611507,0.007912645,-0.002704559,0.0025380587,-0.0035544073,0.0017745002,0.001836795,-0.007580615,-0.005954488,-0.008900477,-0.007038079,-0.0047429283,0.007576291,0.00080602436,-0.0011401393,-0.002735799,-0.0017156771,0.0047842623,0.005774764,-0.0026032533,-0.000335356,0.007813983,0.004889554,-0.0049318597,-0.0015249742,0.0024144086,0.0037866647,0.0029841976,-0.0063606612,-0.00126009,0.0058383634,0.0070426,0.00878289,0.004284923,0.008550199,0.007609374,0.009730129,0.00689905,-0.0035768927,0.0019753994,-0.0063362974,0.01082006,-0.002259562,-0.0009411081,0.00306339,0.009256566,-0.00097558065,0.008188389,0.0074172714,0.002681357,-0.0047245664,0.0065294844,-0.0057105115,0.003601343,0.008294573,0.0028926372,-0.0006016292,0.009324447,-0.0054912614,-0.002878869,-0.006144196,-0.00020933441,0.009649287,0.0009045882,0.008549851,0.0024294818,0.0043562227,-0.007211949,-0.0004965471,0.0060921484,0.009017192,-0.006464806,0.003382693,-0.002912596,0.0032684251,-0.0037021043,-0.007015349,0.0070645413,0.0027701918,0.00091139734,-0.0028340332,0.0011655606,0.006250354,0.0018468677,0.003696243,-0.0082971025,-0.002361654,0.0066701295,0.002379079,0.0037078718,0.0043898933,-0.008129473,0.0064264284,-0.0059886714,-0.004281237,0.010284777,-0.007081191,-0.0075721317,-0.0052437773,0.0043757525,0.008720181,-0.005922007,-0.00026415696,0.0066093635,-0.0020706907,-0.0029527002,0.0066608693,0.0055327476,0.006994501,0.0051171505,0.012574763,-0.0028414128,0.007283102,0.0076447898,-0.0016320108,-0.0070247278,-0.0040566316,0.002060936,0.0015831575,-0.0010561381,0.003045115,-0.0029383248,-0.0056710322,0.005123821,0.0011333667,0.010172023,-0.0063211946,-0.0015406335,0.0033660051,0.0049200663,-0.00014506478,0.009786207,0.0031899011,0.0039145765,0.010756389,-0.0062439987,-0.009107024,0.0025187682,0.006103011,0.0066736084,-0.000262546,0.004946399,0.006650316,0.008369159,-0.0060055624,0.0051663667,0.0053391852,-0.0013936632,-0.00015411881,0.0018627668,-0.003540776,-0.0064258957,0.003111513,0.010311057,-0.008611385,-0.0023263616,0.0038191436,-0.00342661,0.0069725495,0.005135723,-0.005476144,-0.0050866744,-0.0067437817,0.005414836,-0.0032985935,-0.005660491,0.0009418804,-0.00010220079,-0.001990717,-0.0046415552,0.0043315873,0.005840754,-0.0054328404,-0.0034308112,-0.0039240797,-0.006349234,-0.0034709373,-0.0053253486,-0.00640014,-0.0024369196,-0.00028313202,-0.004302285,0.0056978813,0.0024728708,-0.0055561094,-0.0045326343,0.004969379,-0.0052430634,0.010036423,0.01020569,0.00002716472,-0.005837126,0.008868918,0.0077228188,0.005525322,0.0057881223,-0.0021527647,-0.0044951783,-0.0014788082,-0.0024152051,-0.008646235,-0.002137756,0.0030833893,-0.007177202,-0.007930906,0.005737164,0.005383929,0.008523341,-0.007368856,0.0049578473,0.005644403,0.005521156,0.003974701,0.0044030105,-0.0008109186,0.007911537,0.009379548,-0.0046249125,0.008935089,0.00843222,-0.0073380005,0.0029150066,0.0011703976,-0.007083602,0.0052854377,0.009488992,-0.005938301,0.008009945,0.00548759,0.00391741,0.0039309696,0.0027781173,0.007850629,0.010176765,0.0010690296,0.0066052317,0.004275999,0.005861105,0.0045584575,-0.0036457875,0.008099929,0.007834455,0.008062807,0.00068703474,0.0040336666,0.0056358436,0.0074707437,-0.0022007942,-0.003033477,0.006501804,-0.0028946977,-0.0022129752,-0.0066887424,0.004306925,-0.0040004924,0.0034537474,0.0006627678,-0.0074915434,-0.0009016519,-0.0052478057,-0.0057966122,-0.0008140368,0.0036728508,0.0087453155,0.0018170672,-0.00068830274,0.0020822024,0.0026983616,-0.0015494308,-0.008592649,-0.0037170413,0.004105394,0.0015021377,-0.0025527119,0.007932353,0.006459892,0.007804006,0.0035785018,-0.0079842135,-0.0043947827,-0.0024367482,-0.0063436474,-0.0057145716,0.0011056399,-0.006830166,-0.005557239,0.004496929,0.0012134645,0.002443103,-0.0053334488,0.0070240153,0.0062026936,0.005913266,0.0029164762,0.0051813633,-0.003660514,0.005014294,0.006292268,-0.0014756022,0.00049114984,-0.0027300322,-0.0021623347,0.010789644,-0.0033211668,-0.0054702614,0.0046230485,0.0049418425,0.0063064154,0.0045541916,-0.0060239243,-0.006526484,0.0076055303,-0.0017821282,-0.0033959,0.004398738,0.0006080987,-0.008730383,0.008259735,-0.00090388925,-0.0026178348,-0.0031709748,-0.00033553576,0.0035223858,-0.005449884,0.0009329917,0.0067801964,-0.0053639235,-0.0003320973,-0.003758262,-0.0025609538,-0.0042795297,0.00687527,0.004771498,-0.0049433876,-0.0034334422,-0.0020136319,0.0066314605,-0.002872989,-0.00025737617,0.0033014633,0.008899565,0.0068421545,0.0003526356,-0.0074136797,-0.0057136943,0.008547411,-0.0021961231,-0.006926801,-0.0022055132,-0.00437416,0.005835637,-0.006910892,-0.0010288908,-0.0026501962,-0.004943389,-0.0018497505,-0.0013422603,0.0030412325,0.0070181456,0.0023585,0.0010988006,-0.005509997,0.0033242456,-0.0012056994,0.008464593,0.0001061185,0.0076289293,0.007047006,0.008708042,0.0054494366,0.004091175,0.0030190872,0.011060513,-0.005282815,-0.0044014263,0.010087409,0.008000385,-0.004985702,0.0083631165,-0.0019784677,-0.0024252387,-0.006274231,-0.004331935,-0.001473269,-0.005890973,0.007812617,-0.0009832466,0.0035045112,-0.0061659035,0.006243191,-0.000753359,-0.00809165,0.0084650805,0.007988049,0.004580289,-0.00028743615,0.0056532407,-0.002755631,0.007287416,0.0031751108,-0.0023412157,0.0022041523,0.008683608,-0.0011787586,-0.0017046585,0.005790359,0.007202893,-0.0003293659,-0.003145152,-0.007968329,-0.0033922484,0.00676301,-0.006948053,-0.00082641316,0.009375706,-0.001233791,0.00094338914,0.0021401483,0.010413054,0.008440104,-0.0059742266,0.006391137,-0.004617674,-0.005550302,-0.0011162434,0.009874313,-0.0054102857,-0.0049321014,0.007839335,-0.006146142,0.0012621526,0.0061289635,-0.00020938329,0.007957875,-0.0009438956,-0.0072806054,0.005475627,0.0006621051,0.010189766,-0.002692341,-0.002221107,0.008397639,-0.0019988443,-0.0045231073,0.00850818,-0.0025158483,0.0075753536,-0.0023686653,-0.007115233,-0.0006242432,0.003130903,-0.0033148506,-0.0045643523,0.006900071,0.0035315105,-0.003453271,0.0052078837,-0.0040780785,0.000051296847,-0.0055492306,-0.0015987296,-0.008581626,-0.0052108443,-0.009579657,-0.005235656,0.0043064184,0.0029925203,-0.0018118849,-0.00052430667,-0.002445088,0.0022766031,-0.0051469887,-0.004296076,-0.0020846766,-0.0011279014,0.006222162,-0.0005524371,-0.00032971264,0.008396078,0.00097180356,0.00083527336,-0.0022347951,0.010690448,-0.006282649,0.011209479,0.012134205,0.0038826012,0.008305876,0.008746483,0.0042451713,0.010193325,-0.005060096,-0.0072100013,-0.0028402684,-0.0001627832,0.0012881593,0.0011626346,-0.00035170396,0.007806536,-0.00725432,0.0016819881,0.005284777,0.008838024,0.009018397,-0.006996004,-0.003061689,0.00066870876,0.00075887376,-0.004532566,-0.0006711733,0.0024498042,0.0050264206,0.0022569653,-0.006338438,0.008695596,0.0054301354,0.0016738808,-0.001297873,0.00550315,0.004959244,-0.0008421175,0.009164024,0.0070756003,0.0036630507,-0.00091398944,0.00035686526,0.001724918,0.0028421169,0.0016341631,0.0024976989,0.005054463,0.010171109,-0.0019672106,0.002616044,-0.0046522957,0.0075387456,-0.006342208,-0.0073355674,-0.0073205545,-0.003183071,-0.006995596,-0.002469983,0.0069904346,-0.003638165,0.0067044864,0.0073657376,0.0026942228,0.0077055953,0.0042276257,0.0075918785,-0.0076037073,-0.005572789,-0.0077144937,-0.004507094,0.003975329,0.004524446,-0.0024402488,-0.0025158208,0.004436585,0.007553584,0.006099851,0.0030237404,0.005578007,-0.0017623261,0.010131025,-0.001164909,-0.0056188907,0.0011576193,0.005127651,-0.0063625774,0.00094930705,0.0046612574,0.004513799,0.008958256,-0.0025714408,-0.00072571635,-0.008873185,0.0032363203,0.0044753305,-0.0061028893,0.0033197666,0.0060476493,-0.0017088847,0.0037424937,0.002783303,-0.000010033018,0.0057262476,0.006484975,-0.004873652,0.0036319594,-0.00747206,0.0002083804,-0.0033520784,0.0015071385,-0.0013365428,-0.0028758796,-0.0040451754,0.00867128,0.0033750017,-0.00006519974,-0.005615127,0.008421472,0.011019454,0.008579224,-0.005992723,0.01053818,0.0034494465,0.0055237403,0.0046777357,0.0015561804,0.010813978,0.0053035463,0.00048227696,0.0044133696,0.006702384,0.009116247,0.007363985,-0.0038852098,-0.0070515675,-0.003307776,-0.0025910868,0.0053221867,0.0072385985,0.002578298,-0.0029948975,0.0044400147,0.0046240124,-0.0049233437,0.004952508,0.008095689,0.010363369,0.005896433,0.0058116093,-0.004165695,0.011027207,0.0025061835,0.0061346414,-0.0017081547,-0.0029031378,0.00842195,-0.0019034509,0.0066811834,0.004040319,-0.0015533988,0.004695414,-0.003290772,0.0010827298,0.0049587796,0.00064109126,0.0068747,0.0006036926,0.0010334689,-0.0023014476,-0.0029505023,-0.00891183,-0.0065737753,0.0029967043,-0.0006897385,-0.0042745857,0.0073716217,-0.006310086,0.0018569591,0.004168363,0.002353505,0.0012815974,-0.0068500508,0.0017659247,-0.0040044,0.009705436,-0.00417005,0.0041685165,0.005314905,-0.00058092055,0.010419615,0.0008217823,0.008595257,0.00896715,-0.0028366402,0.0029103677,-0.006518985,0.0050028292,0.000071087095,-0.0017295642,0.0009030277,-0.0062899464,0.0087141255,-0.0052113147,-0.0042683734,-0.005910456,0.008165538,0.0061622756,-0.00038589915,0.009806347,0.007489987,0.007099472,-0.0038066045,0.00409298,0.0024061056,-0.00142555,-0.0022972194,-0.008044932,0.0071158605,-0.0077017765,0.009885251,0.00071282947,-0.0068450873,0.009660215,0.009906345,0.0009946873,0.0059683574,0.0061119283,0.0087159,0.0015371416,0.0016373825,-0.0029129318,0.008344022,0.0031349433,-0.0016572956,0.009869798,0.0065723285,-0.005748068,0.008904755,-0.0037377654,0.00033104297,-0.004832209,-0.0061671287,0.0045949775,-0.005255768,0.0076165055,-0.004325828,-0.007743664,0.0072759176,-0.0035582164,0.004014878,-0.007082922,-0.006851405,-0.005242705,0.010165,-0.00046202872,-0.0074868137,0.009505071,0.0048704105,0.0008756341,0.0054941494,0.0030428,-0.0040874574,-0.0019696064,-0.0033686704,-0.0019315882,0.0023700204,0.009004402,-0.0015275045,0.005134292,-0.0016830014,0.005153049,-0.004249412,0.0023276033,-0.002069486,0.0051746103,0.007680852,-0.005023538,0.0014430556,0.004493405,-0.0031325524,-0.002305941,-0.006404627,-0.0037800164,0.0067172367,0.00758363,-0.008300369,0.004661025,0.0015391133,-0.000079011326,0.007912835,0.0054628276,0.00760052,0.009166104,-0.0075491024,-0.0075446377,-0.000018942937,-0.0066572516,0.0027781487,-0.0025315438,0.0070607234,0.0063330443,-0.0024073273,0.006544025,0.005384123,-0.0014328492,-0.0056752493,-0.0066696457,0.0065623615,0.0048659923,0.0008136606,-0.0015698654,0.0019757387,0.0063067647,-0.0057164864,-0.0016592848,0.0036857163,0.006975863,0.0051109777,-0.003432125,-0.00022960898,0.0019350365,0.0056594447,0.0015954693,0.00004318651,-0.000029956385,-0.0018939949,0.00580071,0.0067220777,-0.00040835858,0.008930902,-0.0039430265,0.008950691,0.005768569,-0.0031047177,0.0013768035,0.009353195,0.008202497,0.005340388,0.009113568,-0.004010964,0.005071298,-0.0023603393,0.0051735323,0.002597469,0.0017744509,0.0022087016,-0.004350876,0.009610546,-0.0053979685,0.00080239575,0.000935072,0.0014059949,0.006107517,0.007473958,-0.006124756,0.0066869254,-0.0047159386,0.0033222,0.0057047685,-0.0061042816,-0.0070699565,0.000013580193,0.0045486735,0.00042575068,-0.0051712417,-0.006585903,-0.0056391745,-0.008004038,-0.0050482466,-0.00788419,-0.001690128,0.0053026914,-0.0098404335,0.008190356,-0.009340818,0.004235716,-0.006956577,-0.0033333455,0.007901718,0.0028371986,0.0050630295,-0.0066723977,0.002239482,-0.0045613265,0.000069097485,-0.0012541651,-0.004181064,0.0062510218,0.0021331084,0.009916947,0.00871212,-0.0038109268,0.0069354605,-0.001961581,0.011514695,0.0008370719,-0.0031617538,0.007876074,0.0043330956,-0.0007502982,0.011560594,-0.00542362,0.008050951,0.003462558,0.008434935,0.0058957045,0.00050775363,0.000007187811,0.0009748468,0.011138017,0.010643333,0.0035726763,0.0015698742,-0.00017315197,0.0044206264,-0.0048898836,-0.0046082158,0.007850826,-0.001531574,0.010696087,-0.0041947966,0.007545377,0.004922921,0.0020904492,-0.005558046,-0.0078302175,0.004847525,0.010564078,0.009678782,0.0018938597,0.0052972184,-0.0068795676,-0.0004011814,-0.0041510123,0.0033442758,0.0071899225,0.009137484,-0.0046436363,-0.0055931523,-0.0013068974,-0.008140371,-0.00770928,0.0012340094,-0.0024100945,-0.0019792703,0.0079475,-0.004345875,-0.0028646062,0.0060675135,-0.0009900767,-0.004300302,-0.0045362446,-0.0014190759,-0.00049678463,-0.0035396544,-0.0064647733,0.0044570635,0.00493505,-0.0052645043,-0.00873227,-0.0069936095,0.0023076374,-0.003923345,0.0045489543,-0.0038746702,0.0050544785,0.0035141828,-0.006359662,0.0034391873,-0.0037099505,0.005059281,0.008930408,0.007840875,0.0038093042,0.002971778,0.0015139749,0.008655379,-0.0063994615,0.008336386,-0.0041214433,0.0054749944,-0.007238934,0.0013629923,0.0055813445,-0.0067064296,-0.007258249,0.0011288322,-0.005633567,-0.006768818,0.005374516,0.0033643355,-0.006632632,-0.0065549463,0.0024090833,0.010278666,0.00038793244,0.007915526,0.0065609585,0.006020551,0.00809954,-0.0054263417,0.008120963,0.007838902,0.0074331234,0.0023944876,0.000035926947,0.009445188,0.0025106717,0.0069881543,0.005856205,-0.0028793092,-0.007336911,0.0033989907,-0.00679226,0.00045923507,0.0021325182,-0.0019321945,0.0023561614,0.009919417,-0.0061225872,-0.002104994,0.0072985613,0.0058298972,0.00486475,0.0036713055,-0.0040243785,0.008609743,-0.003938233,0.0082782805,0.010942425,0.0003405459,0.00011030631,0.005273617,-0.005312399,0.0058549037,0.00422398,0.0010177974,0.008493629,0.0038365382,-0.007677193,0.0017289446,0.004116982,-0.007919075,-0.004505316,0.010057334,0.008157833,0.006889259,-0.0012492798,-0.006547312,0.007792115,0.0078026797,-0.0054198215,0.00655221,-0.0027022385,0.0007958738,-0.004173202,0.0050532427,-0.0019987528,0.0005407252,-0.008132039,0.0062502385,-0.005656707,0.0067201797,0.004060968,0.00614813,-0.0027911926,-0.002252369,0.005337713,-0.0044138585,-0.008927718,-0.0071089594,0.00571721,-0.0019392178,-0.006092637,0.0049482216,0.0018363466,-0.0026217566,-0.0051966235,-0.00017342434,-0.0010033101,-0.005887129,0.0058621154,0.0075842664,-0.00063644233,0.009618938,0.0054579466,0.0009817242,-0.0037481023,-0.0019096796,0.010205878,0.0020266601,-0.003339833,-0.0024405632,-0.007555774,0.0022417156,-0.00258626,0.0055738343,-0.006487018,0.010124099,0.005353776,0.010360176,0.0079545,-0.004199455,0.00004621368,0.012379378,-0.003276743,0.0065122833,-0.0005871327,0.0014190477,-0.002415182,0.011556944,0.003160853,-0.0060824514,0.0053885076,0.0023268857,0.0009567573,0.00925751,-0.0046624294,0.007844573,0.011781408,0.0042756842,-0.007146936,-0.0057059326,0.00073870004,-0.00054891536,-0.0038892843,-0.0010681209,-0.0040555014,0.0062773773,0.0034887262,0.0054207807,0.00048061312,-0.00039424992,-0.0051746736,0.0027486687,-0.0026613574,0.0055012708,0.0028411245,-0.00053699734,-0.005152337,0.000116664574,0.008430945,0.0077407975,0.004461816,0.0029044943,-0.004670279,-0.0051123737,-0.0002005464,-0.0009996797,-0.0040320302,-0.0043696966,0.006883041,0.002591179,0.0049722013,-0.00039587304,-0.001550986,-0.0040731314,-0.0025631832,0.006642868,0.00794123,0.002347009,0.011717154,-0.0006570389,0.0025993555,0.008808915,-0.003624237,-0.0045084096,0.010853577,0.009625201,0.002327173,0.0035036583,0.011184918,-0.004718935,0.0023398458,0.0032941545,-0.008501592,-0.0006605664,0.0048857024,0.0019434092,-0.0069634817,-0.0012580894,0.0026823212,-0.00700296,0.004733781,-0.0016935361,-0.0050215707,-0.0035074379,-0.0069169994,0.008510013,0.006907102,0.010948993,0.011793507,-0.0016281898,0.006553176,0.00042811193,0.0064443285,0.00039186963,-0.0009148086,-0.0021641667,0.0039880173,0.010047623,-0.0016057453,0.0046782717,0.0054006497,0.00066069816,0.009034501,0.00016985275,-0.005910794,0.007871428,0.0038541916,-0.0003424763,-0.0062283943,0.0061025666,-0.0009864751,-0.0018845034,0.0073738582,-0.0026371088,0.0064865975,0.0089303795,-0.0069244173,0.0011923842,-0.0044568507,0.008550809,-0.004111414,-0.0007031863,-0.005717286,-0.0044351853,-0.004780101,0.008178376,0.004665041,0.0012871472,0.006342195,0.008712611,0.00982033,0.0077330777,0.005523272,0.0063821026,-0.00051133614,-0.00028173032,-0.0037164288,0.0058010216,0.009202114,0.007019329,-0.0003093449,0.0003655068,0.008310919,-0.00822581,-0.0028180468,0.007221849,-0.008229652,-0.004631596,-0.006249729,0.0056733345,-0.0003154057,0.008748416,0.001609804,0.0076016607,-0.0053286757,0.006105854,-0.0039300984,0.0025239962,0.0010454166,-0.0056576,0.0049942797,-0.0012709709,0.0057442547,0.0054605985,0.00028286822,-0.0056345174,0.010141,-0.006504113,-0.008586643,-0.004511758,0.000064850035,0.00069222256,0.010995271,0.0017965855,0.0014701782,-0.0010598943,0.008132333,-0.005002614,0.005024264,0.0000045660718,-0.0049858047,-0.0058507924,0.007690818,0.00092748523,0.007827166,0.009602968,0.0034387112,0.0069061816,0.0047475216,0.010237664,0.010736579,-0.0014116324,-0.0066355276,0.0036150545,-0.006186447,0.011270355,0.011044814,0.0034742146,0.008924725,-0.0044197156,-0.003991856,0.008779525,0.0027953032,0.0051375753,-0.0022176653,0.0063320496,0.0003847026,0.0049771518,0.0032643129,-0.0007645883,0.003008232,0.0046792952,0.009892346,-0.0009966007,0.00915953,0.00033828456,-0.002251345,-0.0012462495,0.006537926,-0.0037546058,0.008924411,0.00358764,-0.0077794157,-0.0033540314,0.0063961027,-0.0016408616,0.008034551,-0.0007706165,0.003773664,0.0058862055,0.009687114,0.0029976813,-0.0014545261,-0.000101987505,-0.0074605807,0.003451364,0.00698825,0.0013683954,-0.0019557206,0.001794592,0.0029765381,-0.0041130483,-0.004765481,0.0002938724,0.0038817546,0.0052865422,0.006332468,-0.0064207073,0.0020776133,-0.0049942555,0.010838831,0.011166298,0.0016218355,0.007236375,-0.0036065222,-0.007231264,0.0037146816,0.0027708206,-0.004301656,0.0025063837,-0.004686404,-0.0009866883,0.008197987,-0.0063778535,0.007866951,0.008575627,0.004745282,0.0030982206,0.004895907,-0.0065869326,0.0057838326,-0.0026227427,-0.00325754,0.0043575945,0.01064071,0.0074199555,-0.000027468348,0.007804145,0.00038482514,0.0074413167,0.010074568,0.0063315234,0.006121862,-0.00321093,0.0011742125,0.008664277,0.00034830574,0.010307152,0.0066302344,0.0076382374,-0.0034338126,0.007801256,-0.0041585774,0.0077031683,0.005450792,0.003954642,-0.004056023,0.007739116,0.010684555,-0.005244479,0.0074228276,0.004125605,0.0033590698,0.009418299,-0.0037795508,0.0014446927,-0.0020328523,0.008661739,0.005551162,-0.006674875,-0.004296212,0.0017281148,-0.0041013686,0.0037903786,0.0075059105,0.0058652316,0.006689365,0.0005511958,0.007299416,0.0058067776,0.007969543,0.0021892972,-0.0061257365,0.0088930195,-0.0073237154,-0.0021997322,0.0075784926,0.0016125065,0.0048957756,0.0062740473,-0.0040171286,-0.0011391643,0.0064323065,0.010151101,0.006261713,0.008356231,0.008696413,0.00010786637,0.001818834,-0.004518917,0.00581216,-0.0016793216,-0.0074289325,0.00508111,-0.0018939435,0.0040139994,0.0007587617,-0.0005781883,0.006796344,-0.006374169,-0.0032006295,-0.00063902844,-0.008503171,0.0080498615,0.0069224625,-0.0077557783,-0.0039111935,-0.0064073987,0.004644553,0.0010480747,0.005550304,-0.0021677904,-0.0005860084,0.009506966,-0.0056409356,-0.0028067061,0.0066587436,0.00993533,0.0063531785,0.006033649,0.009850477,0.004749028,-0.004810645,0.008896989,-0.0012829639,-0.008671048,-0.0069447183,0.0024795253,0.006695026,0.009613533,-0.0004035531,-0.006816587,-0.00061616366,-0.0064782305,0.005256207,0.010311506,-0.0030194684,-0.004094359,0.0027551015,0.0014023618,-0.0011699778,0.00095494144,0.0047296407,-0.00030834848,0.0052738064,-0.0047810664,0.0028400028,-0.004684281,0.0031165043,0.005099765,0.0022381945,0.0054140873,-0.0030846382,-0.0028383923,0.009431411,-0.008102742,-0.0081958175,-0.00276487,-0.008861132,0.00024749213,0.0042882618,-0.0092846835,0.0061533367,-0.0021868388,-0.0026043113,-0.005008554,-0.00034779304,0.0064315638,0.0069317026,0.005699359,0.0019785606,-0.0049198475,-0.0049056853,-0.0044695586,-0.006193774,0.007975291,0.00072405,0.0019153751,-0.0076513835,0.0019464976,-0.006209622,0.003614215,-0.0006941193,-0.0065344158,-0.0035186077,0.003999262,-0.0053950134,0.0073421155,-0.0097347805,0.0073004705,-0.0068968805,-0.0033978298,-0.0060154116,0.0006411087,-0.004648325,-0.004756997,-0.0056316582,-0.005698472,-0.0007520738,-0.005243328,-0.005095703,-0.002739061,0.00008771615,0.009658965,-0.0058094515,0.010895896,0.0031309251,-0.0069926432,-0.0041570864,0.0063998383,0.007729416,-0.0031372018,-0.0060597393,-0.0003649099,-0.0035728815,0.0067132004,0.0010066204,-0.005304187,-0.0047214488,0.007948598,-0.00096992694,0.0010644696,0.004986885,-0.00075192004,-0.0011797716,0.0046865186,0.00090663997,0.0071302326,0.006517608,0.0032157067,-0.00054529036,0.005403447,0.010117104,0.0029830558,0.0069523174,0.0061171544,0.009391377,0.005485072,0.003250468,-0.0060044136,0.004179605,0.00980346,-0.0033684582,0.0068641677,-0.0032924833,0.003056255,0.0042337645,0.0040141405,0.0061943834,0.008398087,-0.0031571023,0.004122808,0.008784945,-0.008559081,0.009476232,-0.0013717369,-0.0021804834,-0.0071841814,-0.0028017857,0.0045601707,-0.0055193426,0.00050447386,0.0017170736,0.004552491,0.006895852,0.0022273608,0.007763762,0.008013095,-0.0024237148,-0.00015045142,-0.0057440638,-0.0023455115,-0.004630585,-0.0049313353,-0.00063085224,0.00084081927,0.0051833116,-0.0018059193,0.006310712,0.0053086234,0.0021315403,0.0070516854,0.0047772853,-0.001385896,0.0051941173,0.0048007574,0.0032035916,-0.0020069585,0.00019231242,0.0042491285,0.0024565957,0.0062617166,-0.008689394,-0.0053136735,-0.007278441,0.006378885,0.008041592,-0.000829301,0.00095052307,-0.0031146882,-0.0070420825,0.0048309825,0.00038576455,-0.006146532,-0.0029361795,-0.006220301,0.005283148,-0.007088894,-0.0017261663,0.0025864255,-0.0068059647,-0.006342846,0.007603495,0.0034600147,0.004276261,0.007310491,-0.0014466658,-0.004907583,-0.005107671,-0.0057282476,0.003993117,-0.0037743864,-0.007209192,0.004888514,0.0115296375,-0.0037092508,0.00017403823,-0.0037654622,0.005065287,0.002487089,-0.001008837,-0.00025290818,-0.0057129003,-0.0047448985,-0.0037291772,0.00905748,0.0051593673,-0.00041086198,-0.0005659903,0.008257778,-0.003529835,-0.008783209,-0.0023255176,0.0043539675,-0.00025941766,0.007831734,-0.007913991,0.0076402253,0.005814679,-0.0008771339,0.0067561665,-0.001067634,0.0042312667,0.0035339177,-0.001519526,-0.0068181804,-0.009976371,-0.0017487116,-0.008749358,-0.0044332603,-0.0008230252,-0.008283081,0.0057030506,-0.005016168,0.0085304165,-0.0058725732,0.0056676804,-0.00071344397,-0.000759491,-0.0028825016,-0.0043069967,0.0064438777,-0.0047633513,0.0053371773,0.0009857891,-0.0011257996,-0.0073816716,0.0007936508,0.0056323116,0.0052941707,0.0035294704,-0.009260009,0.0003944335,0.0066249147,0.008974948,-0.00008833975,-0.008630912,0.0058219344,0.0027381713,-0.0072137485,0.0035495253,-0.0008324778,0.0038638266,0.0079498105,0.004642142,0.003704401,0.008051731,0.002561349,0.0025985984,0.0068111117,0.0070443586,0.01039406,0.004928756,0.0024295002,0.0069127567,-0.003726936,-0.003008212,-0.00023349334,-0.0011228431,-0.0039393576,0.004549014,-0.005223192,-0.005775472,0.010195115,0.0015741303,0.004159239,-0.0046039918,0.012193303,-0.00079556176,0.010834801,0.0020902466,-0.0030439664,-0.0057225856,0.0048527555,-0.0027282606,0.003875203,-0.0026679249,-0.0029487761,0.0032446359,0.0063243355,-0.0031250825,-0.0060055098,0.0018990958,-0.0063010775,-0.005586166,0.006896947,0.00595393,-0.0036986868,-0.006083482,0.0071494957,-0.0070244162,0.007956702,0.0019996848,-0.004595699,-0.00014305505,0.0022601893,0.008695155,0.003055747,0.00647157,0.0075549525,-0.007978937,-0.010473572,0.0071348287,-0.0013763062,-0.007136182,-0.004752097,0.004859306,0.00057340343,0.010004778,0.008302238,-0.0016224064,0.0014577948,-0.00046352603,0.002693937,-0.0053182226,0.0061424943,-0.008395962,0.0053018224,0.007367359,-0.00011910065,0.004645564,0.009067492,0.003110924,0.0071878335,-0.0017537702,-0.007217076,0.0068667843,-0.0068424987,0.003586648,-0.008332488,0.0023335468,-0.0061366274,-0.00953185,0.0028103436,-0.0017796103,-0.0023694646,0.0032366056,-0.0049962364,0.0013250543,-0.0014399408,-0.005712365,-0.0020514557,-0.003112054,-0.0005484585,-0.0070980475,-0.0036257536,0.0020267926,0.0065516555,0.008391356,0.0042613735,-0.004306425,-0.0029287685,-0.0032308968,0.0038033123,0.0070212367,0.0018388202,-0.0016628943,-0.005213116,-0.0019450131,0.0035791073,-0.006825183,0.0031309281,0.0032442529,0.0038569462,-0.0025836516,0.0033638272,0.002355232,0.009211241,0.0029314607,-0.0043716156,0.010580214,0.005757981,0.011114446,0.010323281,-0.00543954,-0.0049846782,0.0015241232,0.0022790057,0.008364818,-0.0005444401,0.00013533997,0.0007937031,0.0024930097,0.0004337517,0.01125334,0.009032155,0.0025167738,0.00016767028,-0.0002626989,-0.004417885,0.0038528268,0.0092867315,-0.0044729696,-0.0025749488,-0.005406817,0.002782959,0.000010486761,0.0009492492,0.0025075155,-0.0044986014,-0.008276991,-0.0071338345,-0.008047639,-0.0030648827,0.006930958,-0.0050655752,0.004747164,-0.0006644691,-0.0055591245,-0.0050698463,-0.0012688998,-0.0049051642,-0.0063974243,0.0052529015,-0.0024311873,-0.0009247156,0.0005373525,-0.0036039809,-0.005459531,-0.004038314,-0.0005281961,0.002634805,0.006913531,-0.0070815226,0.001018478,0.0062687797,0.004504287,-0.0057420046,0.0045938212,-0.0050594844,0.007906987,0.0032112377,-0.0012020692,0.004640879,0.006494506,-0.0056140726,-0.00071380974,0.01017103,-0.0077793635,0.0010421489,0.00087006105,-0.0050705364,-0.004440599,0.009494593,0.0044708014,0.008532007,-0.00070853904,0.00067353906,0.0044880896,0.0018988454,0.006447749,0.000008277839,-0.00061071507,0.009977935,0.0071137357,0.00588715,-0.0014319803,0.0008152092,-0.000048888163,-0.00032528982,0.007648615,0.006572604,0.004626384,-0.0066333837,0.0046003093,-0.005482259,0.0037018412,0.01088727,0.011552469,0.009492505,0.000022741619,0.0021100629,0.0046706107,-0.0005048282,0.008633383,-0.0021272842,-0.003208776,-0.0049377973,-0.007859899,-0.006669937,-0.006960273,-0.0068684965,0.0054857633,0.006899715,-0.006633173,0.005394163,-0.007166954,0.0045040017,-0.006925972,0.0091672875,0.00007036648,0.0010481413,-0.0037502681,-0.0048512793,0.007487484,-0.0031371736,-0.0036976216,0.0060790405,-0.008046481,-0.0019972087,-0.006100392,-0.0068759457,-0.0058396524,-0.005089051,-0.0060897716,-0.0018369646,0.0015102354,-0.0012133113,-0.004550348,-0.0029941956,0.0069280188,-0.0024294925,-0.0067989896,0.0023421948,-0.00056268,-0.0012519537,0.00772803,0.0047034444,0.0023405899,0.0035270643,0.0010119822,-0.009787064,0.007093234,-0.00791967,-0.0033124993,-0.0011073373,-0.0016791627,-0.0031097108,-0.008387889,0.001383876,0.0022442266,0.0007914344,-0.00033618326,-0.0053366623,0.0015615156,-0.0053982693,0.0025242835,0.0011689961,-0.0069011566,-0.0042757317,0.009446218,0.0009714237,0.00071655546,0.0033601741,-0.0014315977,0.0007958286,-0.006068082,-0.0030081477,-0.0047769216,0.0058563547,-0.0036662952,-0.0015335277,-0.0020068388,-0.0060739797,-0.007749228,-0.00081915245,0.0019839564,0.0023351074,-0.005970291,0.006729155,0.007337717,0.012221895,0.008731628,-0.004825712,0.0070409453,-0.0017255547,-0.004351597,0.008272792,0.008489069,-0.005872572,0.004108015,0.0040868237,-0.0048879734,0.00042713984,-0.0043410365,-0.004099062,0.0068944497,-0.0062683066,-0.0002723245,0.006702271,-0.004020114,0.0006709474,0.008774167,0.0010159997,0.0006223921,-0.0029774343,-0.006900545,-0.004115579,-0.0061664023,0.0013816068,-0.0015491339,-0.0017903936,-0.0075156135,0.0036415686,0.004701709,-0.0048195724,0.0040092217,-0.0068480778,-0.0029532886,0.0009914888,-0.005732881,0.0068575637,-0.005398567,0.008682172,-0.002536149,-0.007817061,-0.00051997113,-0.000039575905,-0.0031261614,0.0051174127,0.0053486857,-0.008114856,0.009762086,0.004422917,0.0019559397,-0.0054047797,-0.005668707,-0.003752176,0.009736605,0.007718163,-0.0022237701,0.005137922,-0.004207938,-0.005433086,-0.0016549219,-0.004238946,-0.0057735275,-0.0018980524,-0.0004906849,0.0013134305,0.0018219176,-0.0050546424,0.0056645996,-0.00077299145,0.004409813,-0.0071496814,-0.00060707855,-0.0044784937,-0.004547868,0.009140155,0.011452829,-0.0041853143,-0.0046357494,-0.006501065,-0.00433289,0.009376854,0.0050875475,0.0038355417,-0.0012777753,0.003864063,0.01132898,0.0059292186,-0.004966476,0.004217521,-0.003948182,-0.002698861,0.0067224326,-0.0037974678,0.008942117,0.0021462382,-0.0044231764,0.009825819,0.0009828907,-0.0049478454,-0.0018898696,0.0023932995,-0.002055862,-0.006697417,-0.0028450158,-0.0010273259,-0.006570812,0.0070249382,-0.007701344,-0.0033615194,0.0054345084,-0.005132629,-0.0071837213,0.006345951,0.00025910055,0.00091040303,0.011106139,0.00779123,-0.00791583,0.003888443,-0.007901005,0.0039868946,-0.0038163716,0.006090872,-0.008254805,0.0007041742,0.005713927,0.0018673696,-0.0031855854,-0.0024050204,-0.001524657,-0.0047536087,-0.0037813724,-0.00052260194,-0.002057391,-0.008102717,0.00733626,-0.0059177424,-0.0073607364,-0.008623603,-0.004003249,-0.008810813,-0.008677003,-0.002835602,-0.008377607,-0.009803422,-0.0012932466,-0.004687415,-0.0048716874,-0.007260135,0.0024929564,0.003973883,0.0020599405,0.0007202132,-0.006003279,0.0060167974,-0.006467742,0.004043554,-0.0005415901,0.0018445203,-0.0010978158,0.0048032207,-0.006526535,-0.00017690132,0.005854167,-0.0044607166,-0.0031415955,0.004648213,-0.006142213,0.006143062,-0.007615962,-0.007982636,-0.0018436325,0.0005877158,-0.004550976,-0.004977702,0.0018903367,-0.008607937,-0.008951285,0.0046124887,-0.0018097307,0.0009777169,-0.007257823,0.007868192,-0.0030787245,-0.0038290177,0.0068466887,-0.0074631423,-0.00468183,0.003980973,-0.006391371,0.0015907694,0.006565286,-0.00878395,-0.001677606,0.005770185,0.0042227637,-0.0042204354,0.0013259989,-0.008720703,-0.0007429415,0.008373468,-0.00879266,-0.008139089,-0.0014049156,0.0031789218,0.00082743465,0.0052094217,0.0046595377,0.0015059328,-0.0022281464,-0.004045782,-0.0038899167,-0.0011758178,0.002719532,0.0031344686,-0.004885272,0.0009988716,0.000020934618,-0.0022103048,-0.008382097,0.0024081396,0.0049994853,0.00037319737,-0.00027385214,-0.0034803275,-0.003968189,0.0039918213,0.010841605,-0.0055579282,0.0072590723,0.0059699025,0.008528034,-0.004030916,0.0017505108,-0.0039957077,-0.008054563,0.00817593,0.010045577,0.003723562,0.009045282,0.001291906,0.005229045,-0.004702515,0.0017225958,0.002356627,0.010095475,-0.0007516646,0.0058533913,0.0011076047,0.0068912986,0.0067768604,-0.00017011052,0.0018034559,0.009419329,-0.0010455598,-0.003880665,-0.00744377,-0.0036756252,-0.007830996,-0.0065927873,0.005917747,0.0059933006,0.003463686,-0.0052215504,0.00881161,0.0013501652,0.008275776,0.011213289,0.011175736,0.0005534092,0.008061567,-0.0041961,0.00962534,0.0033562742,0.0070908153,0.009217674,0.0020124684,-0.0014288035,-0.004076007,0.0052568326,0.0011756864,0.004265902,0.0020471646,-0.00036897062,0.0116195455,0.009102115,0.00009921445,0.00034689112,0.008377611,0.0048480765,0.010119003,0.0025699965,0.009592684,-0.0062334943,-0.0053791017,0.0092001455,0.0015148274,-0.0048827515,-0.0049519804,-0.0070283934,0.0002722393,-0.0060116355,-0.006410518,-0.00016373824,0.0054256944,0.010162476,0.009441191,-0.006271437,-0.0058964253,-0.002098972,-0.004430811,0.006512499,-0.0024107252,-0.00079550117,-0.005951492,-0.010521431,0.008168713,-0.00024108728,0.002697786,-0.006714919,0.00022815359,-0.00859214,-0.004385132,-0.0043386226,0.008720756,0.0027758225,-0.007797122,0.007928928,-0.0002514717,0.0065702805,0.0054859617,-0.0014550808,-0.00026382087,-0.002348233,-0.005728111,-0.00030989567,0.006077111,0.0058786613,-0.0038878557,0.0053849677,-0.008176534,-0.00030495756,-0.0074257297,-0.009626347,0.006382976,0.0054507493,-0.0005430893,-0.006802374,-0.0016451664,-0.0037341635,-0.003527811,-0.005998989,-0.000810834,-0.001594838,0.0060535558,-0.0011248327,0.0058203116,-0.004693102,0.007143947,-0.00060777983,-0.0069442745,-0.0053873686,0.007810986,-0.0060573523,-0.0106609035,-0.00410496,-0.0017433797,-0.010005382,0.00054424215,0.0038899453,0.00083267316,-0.0065288367,-0.0012258666,0.0030275935,-0.0036829226,-0.00826423,-0.008691618,0.007887096,0.0076101883,-0.005340391,-0.00067314197,-0.0021873298,0.0040279245,-0.0032756985,0.0020689194,-0.0072147553,0.00202064,-0.006303099,-0.00857472,0.0018142714,0.0026259043,0.005698816,-0.0027005353,-0.0049080877,0.0048222383,-0.0054210653,0.0037385412,-0.0009380056,0.006396042,0.0063275457,-0.008837742,-0.0012653866,-0.0010140205,-0.0074875467,0.010189502,-0.006054274,0.0027806484,-0.0054580765,-0.009692793,-0.00980899,0.0033474048,-0.0056840125,0.0028382246,-0.007494012,0.0016598955,0.009158467,-0.0021714808,0.0024845637,0.0032473586,0.008909041,0.0021889068,0.009555788,-0.0032648398,-0.007685086,-0.0050105257,-0.0023471068,0.0051875412,-0.0063220984,0.007318162,0.008136074,0.009958815,0.0032536301,0.0021335008,-0.0074095544,-0.0063322624,-0.003090595,0.0030556142,0.009788944,-0.00089123007,0.0039123897,0.011817737,0.006041506,0.0074041258,0.005627598,-0.007681204,0.006431494,0.000056522083,0.003632944,-0.0002626921,-0.0038326539,-0.0035847835,0.00140866,0.0026554435,0.003875639,0.0021507235,0.0015118544,0.012008219,0.003525014,-0.0017869762,0.013135923,0.011862241,0.0035997913,0.0029623727,0.00812859,-0.0049373712,0.009226247,-0.0007281352,0.000836166,-0.0029249173,-0.003605061,0.0076701017,0.0063434658,0.008908486,0.0109015275,0.0005496589,-0.0009518308,-0.003325976,0.00056550396,0.006563816,0.0074087535,0.01172329,-0.00038861026,0.0084646465,-0.001771573,0.01093045,-0.005237192,0.011251006,0.003047842,0.010082236,0.0000872708,-0.0063508875,-0.0033797484,0.0060757096,0.0043313922,-0.0029865352,-0.0052320124,0.008727165,0.008494238,-0.0058806073,0.0070046107,-0.00023106692,-0.0059020026,0.0024400789,0.002446479,0.008290571,0.0070936773,-0.0052747875,-0.0086505115,-0.0063112206,0.00047285302,0.0062235207,0.011134968,-0.005548058,-0.000739862,-0.001866839,-0.0078004966,0.0054420657,0.00810706,0.0012487863,0.006063113,0.0069196317,-0.008134199,0.0067618922,-0.0075554666,-0.0075113485,0.0024034136,0.00031954588,0.0029466492,-0.004805654,-0.0074449107,-0.0029111553,-0.0037374191,0.0067375437,0.0037679954,0.00028807536,-0.00062847894,-0.0044713155,-0.006042125,0.005677089,-0.0025478774,-0.0006368708,-0.009275408,0.0000116428155,-0.005160784,0.0034262394,-0.0018798998,-0.0064688427,-0.007799698,0.0012263629,-0.005947655,-0.0013573882,0.0041967393,-0.008605747,-0.0033028459,0.00088971155,0.0032643776,-0.0058688596,0.0077006165,0.0069933594,-0.0010739164,-0.007978955,-0.009197136,-0.006721108,0.0010519449,-0.0042289803,-0.009854973,-0.002905363,0.00463813,-0.0026403521,-0.0007096441,-0.0059049777,-0.0026139545,0.0074556037,-0.00771406,-0.009228435,0.006345955,0.0022838032,-0.0064782887,0.007836339,-0.009146379,-0.005002853,-0.006577019,0.005062809,-0.0031364965,0.0048549003,-0.0060403896,0.002653494,-0.005559491,0.0033099174,-0.0046086763,-0.006162781,-0.0061766594,0.0064820927,0.0064931056,0.0010056866,-0.003836755,0.003517672,0.0036878125,-0.0030766835,0.0052095065,0.0052726315,0.0014502225,0.0041074944,0.004540088,-0.0016636313,0.0002036872,-0.0056873355,-0.0064412276,-0.00024366609,0.0021859342,0.009821839,0.00898239,0.0016711705,0.0033748487,-0.0007791701,-0.00026790012,0.0014140222,-0.0024290113,0.009004895,-0.006921483,0.009959694,-0.006056009,-0.0065604574,0.005209604,0.0016717215,0.004892966,-0.0010714001,-0.00024722182,0.0014660048,0.0101527935,-0.0062989686,0.004087336,0.002733846,-0.002998272,0.0029367832,0.005843246,0.002940946,-0.004742363,0.008925395,0.006059888,0.009652943,0.0025916393,0.00047253387,-0.004736782,-0.0030888186,-0.0047369855,-0.004842677,0.0014223175,-0.0024652148,0.006203875,-0.0037827394,0.001282837,0.0040859687,0.0047309026,-0.0024336844,0.0006818155,0.0009041725,0.000029941928,-0.0009783033,0.002265447,0.00439416,-0.0032639275,0.0024044455,0.0056025344,-0.00041453674,0.0007355827,0.007766857,-0.0023370348,0.008832139,-0.0022292559,0.0012738667,0.008472886,-0.0010875532,-0.003148464,0.007098139,-0.0014458278,0.0071871886,0.007870846,-0.004076875,-0.0060009174,0.007578053,0.010669103,0.0067453096,-0.0040573534,0.009223868,0.00300954,-0.0034097552,0.005652217,-0.0014359361,0.0019172371,-0.0071028373,-0.0031500435,0.0076279165,-0.0013035809,0.006290585,0.0014207865,0.009365745,-0.0007256104,0.0058094924,0.0060670148,0.008877046,0.0041402215,-0.002935021,0.010116159,0.0071274345,-0.0027123846,-0.0032490555,-0.0024945077,0.004465474,-0.006885248,-0.0014298584,0.0005982248,-0.0040123,0.00512498,-0.0027661237,-0.0067870677,0.0008873454,0.0035255435,0.001407921,0.006870925,0.0034077128,0.0017239362,0.008429273,0.0070970384,-0.00023805584,0.0055912086,0.0066026105,0.00600168,0.0043779053,0.006115818,-0.0031660942,-0.0061315876,0.001222444,0.006068654,-0.0070168455,0.0004962047,-0.0031259235,0.005682132,0.008573036,0.004208674,-0.00674743,0.0052513406,-0.0023987223,0.006888763,-0.00008682718,-0.005217147,0.003628749,-0.00040086143,0.00420018,0.007859715,0.007702478,-0.0033837084,0.005658943,0.005265392,-0.008550095,0.004079382,0.0034306326,0.0038167275,-0.008805942,0.0055188476,0.0041473797,-0.005714733,-0.0036955753,-0.0040997514,0.010389049,-0.0017999152,-0.0064873802,-0.006200867,0.007953159,-0.0011415869,-0.0073131723,0.0030751913,-0.009364105,-0.0057740193,-0.0054242196,0.004380451,0.0030087682,-0.0076625617,0.003242981,-0.0027443976,0.008633358,-0.0039936313,0.006471294,-0.008579957,-0.000014520509,-0.000699436,0.006043549,-0.0021609976,-0.0038956676,-0.002499383,-0.005682547,0.005990174,-0.009212643,0.006297261,0.00043026533,0.004673656,0.009629137,0.007324923,-0.0064482875,0.008588371,0.0005524829,0.0046915035,0.0038940676,0.0023661116,0.00502975,-0.0068240287,0.0042321035,0.008687888,0.007806322,-0.00026715425,-0.0018420736,-0.0038131615,0.010874012,-0.0041205008,-0.0009881154,-0.0026115018,0.010741402,0.00911444,0.005529763,0.006053895,0.00060247694,0.010063099,-0.0056360015,0.002544656,-0.0009284074,0.008382687,0.0116820885,0.005912063,0.0046556047,0.010530257,0.0017212307,0.0073223417,-0.0031960504,-0.0005733098,0.007974483,-0.0057682134,0.011844093,0.010137119,0.0019643023,0.008624491,-0.0023561304,-0.0033579995,0.0009020192,0.0026577697,0.009018737,0.002501938,0.005942066,0.0023368737,-0.0029553273,0.008604903,-0.00067684054,-0.004657665,0.0035416025,0.0065311794,0.0058456804,0.008780421,0.006663717,-0.0012125389,0.000031996675,0.0041276724,0.0023069647,0.012000952,-0.00409985,0.0039911093,0.006790035,0.012210756,0.00013305206,0.0110468585,0.008869442,0.010109638,0.010800213,-0.0019906075,0.00077253603,0.0079160025,0.0069282483,0.0007779919,-0.0049801823,0.0052849003,0.010434161,0.0011932199,0.009489089,0.0044911,0.00041829384,0.009673978,0.00050091476,-0.0047572516,0.0019918033,0.0022023574,0.004847586,0.0035371138,0.004345267,0.0019894904,0.0060074413,-0.0048359307,0.0095232,0.008990457,0.006066651,-0.006450929,-0.0021636127,0.000060341863,0.0025592516,-0.00048755226,-0.0052211997,-0.005362831,-0.005741528,-0.0059335483,-0.0064339885,0.009192182,0.0003166975,-0.0024299668,0.007582055,0.00062571204,0.0021434992,0.0015076665,0.002135012,-0.008341769,-0.0072265244,0.008637343,-0.0043275855,-0.0039527495,0.00015774638,-0.0068765883,0.003081409,0.0027257279,-0.005847606,0.002847309,0.009769027,-0.0026550267,-0.0051080976,0.00075498316,-0.0048502227,0.0038270548,0.0061946716,-0.001980018,0.0023468612,0.004078562,0.00884577,0.0021161537,-0.004956369,0.0063753924,-0.003144871,0.0043011038,0.004139099,-0.0042785495,-0.004219306,-0.008613768,-0.000099738405,-0.007311516,-0.0097488845,-0.0031900876,0.008381434,0.003609493,0.0014006364,0.004499671,0.0006418455,-0.0053747525,0.0055810595,-0.0006263886,0.00046717236,0.010076793,0.0017201112,0.0007387294,-0.0017747992,0.0053563346,-0.0010474172,-0.0034942906,-0.005014034,-0.004431142,0.0060727233,-0.0075660115,0.004656111,-0.0064611896,-0.0048762327,-0.008226431,0.003716636,0.0024250287,-0.007388382,-0.0054277238,0.0047608404,-0.0017446985,0.007737751,-0.0003673154,0.009464745,0.0033217221,-0.007417278,-0.0037431333,0.004284033,0.004015766,-0.0018304682,0.001818012,0.0050728945,-0.0048485976,-0.004580598,0.0077230595,0.006949112,0.0049594627,-0.00812689,-0.0054264995,0.0051514,0.0046626716,-0.007994281,0.0060011763,-0.003953732,0.0012473944,0.010000531,0.004856029,0.01060549,-0.0030867704,0.0012138094,-0.0022011278,-0.00039545805,-0.00084491307,0.0008574025,0.010511099,0.000115404044,-0.005217469,-0.0008044292,-0.0007709765,0.0040230365,0.0015267459,0.006420732,0.012405876,0.00033784186,-0.002678323,-0.00080978207,0.00017887366,-0.0036696591,-0.004333457,0.008170991,0.0038750602,0.0074968548,0.002526845,-0.002572375,-0.0026807138,0.0025279012,0.004475757,0.0055056424,0.0108168665,-0.0034578783,-0.0022960035,0.0037124483,-0.00671059,0.0015252909,0.001090407,-0.0031568254,-0.0030784914,0.011571636,0.011013244,0.0031814033,0.0067862514,0.005579576,0.009919603,0.00590233,0.010369146,-0.001397033,0.008346546,-0.003563665,-0.0029041737,0.011070232,0.0013898528,0.009846062,0.0044249496,0.00020000538,-0.002637692,-0.004411683,0.0013156259,0.0029910903,0.003325071,0.010281236,-0.00065631524,0.005962599,0.008697231,-0.00025681363,-0.006922251,0.004048219,0.009208167,-0.004572906,-0.0047327937,0.0022353553,0.0027735785,0.0030934662,0.0034041377,-0.0057462454,0.0036960852,0.006022356,0.0057877847,-0.0013202854,-0.0024473842,0.0054681543,0.0088072745,-0.00074462657,0.0007190121,0.000013947342,0.0017372266,-0.00081402296,0.00749649,0.00978951,0.006323651,-0.00065628893,0.0019392645,0.00763055,-0.0034816074,0.0092356345,-0.0067441408,0.0064005493,0.0036498487,-0.0030959502,0.00067486276,-0.0006799347,0.0028587643,0.0051205647,-0.0028899675,0.000009630668,0.0062024677,0.00033575788,0.002632183,0.0055660955,0.00041720897,0.000997131,-0.003947097,0.0007680865,0.007361962,-0.00063984125,-0.008064162,0.0065157437,-0.0050925394,-0.005021293,-0.0002448952,0.003765216,-0.0033068846,0.002987741,0.0041810744,-0.0035629284,-0.008749341,-0.006892176,-0.0076457527,0.0013093782,-0.0068783704,0.0066173756,0.00236537,0.0040197284,0.0049683517,-0.007958166,-0.004062576,0.0067819133,-0.0011941316,0.0017909328,-0.006536155,0.007330066,-0.0023099496,-0.007678031,0.0030403708,0.0025861748,0.0007978097,0.0017757838,0.0070579625,0.0021407618,0.00036634036,-0.008239897,-0.0044165226,0.008595409,0.0033298917,-0.0055127856,0.002213846,0.0102141835,0.0028248848,-0.0035623715,-0.0049160277,-0.0017755695,-0.003406412,0.0021512627,-0.002165208,0.0056299297,-0.008358824,-0.00014052063,0.0030708245,0.0024328385,-0.004617971,0.002067617,-0.0074308864,-0.006058643,-0.0009162344,0.005464635,-0.00029235694,0.008450494,0.0024654998,0.00745815,0.004439924,0.007003789,-0.0076593207,0.0057693743,0.0017371485,0.008103001,0.0027135971,0.0033154923,-0.0032432382,0.0098481085,0.010197412,0.0016919799,0.0062482534,0.010104429,0.0076707946,-0.005200227,0.0078004943,-0.004547476,0.0074450616,-0.0017142972,-0.000984555,-0.0009114642,0.00925906,-0.0011847141,-0.0020583349,0.00987514,-0.001181722,-0.0034049468,0.00966595,-0.00069378887,0.0046372474,0.009426027,0.005385987,0.0025975753,-0.0020512282,-0.0036706997,0.0072157327,0.0069754454,0.0051562614,0.002690041,-0.0063151666,-0.0028135472,0.004597741,0.0089789005,0.0029175673,-0.00010333153,-0.007419867,0.0017620837,0.009363468,0.0076173493,0.010593689,-0.0050714975,-0.0032373504,0.0034860484,-0.00044241297,-0.00083229865,-0.0006792634,0.0042310944,-0.0051382463,0.011147606,0.0022444222,-0.0047853347,0.0112039065,-0.005322958,0.003226674,-0.0044463165,0.0022276705,0.005040079,0.0027196237,0.0049936264,0.0036793947,0.0053249793,0.0036800879,0.007346936,0.0006615091,0.002737774,-0.006658173,0.0017174503,0.0022162658,-0.007933493,-0.0049162256,-0.003115265,-0.002520981,-0.0013654869,0.0037346522,0.008184226,0.000390731,-0.003905614,0.00935112,0.008813143,0.0062770834,0.008961028,-0.0016966633,0.009791048,-0.005146735,0.0012915639,0.004512108,-0.006007011,0.0035468675,-0.0057418128,-0.00037992408,0.00387347,0.0034482558,-0.0041301083,0.0066002607,-0.0035928255,0.007231294,0.0003004972,0.0018902642,-0.0073615285,-0.006774178,0.007956658,0.0024149807,-0.006529713,0.004608127,0.0046671047,0.008563731,0.0016720822,0.0007421423,0.0022907313,0.0015377806,-0.005422728,0.0084059555,-0.0015409713,-0.0037326051,0.0082300175,-0.0029092256,0.004297846,0.0022795557,-0.005151443,-0.006266629,-0.0018926658,0.005146187,-0.0016334872,-0.008673459,0.007988616,-0.009799301,0.00064384803,-0.008098709,0.007180273,-0.0037511352,-0.0059423437,-0.005571434,-0.0023727731,0.007865788,0.0005317406,-0.0020768389,0.003326031,0.00018538919,0.004542268,0.0029224786,0.0076737613,0.004016063,0.004884504,-0.007618776,0.0033418264,0.008325386,0.00017250156,-0.0070520346,0.000054430395,-0.0009095839,0.009880564,0.008105448,-0.0034595963,-0.0037820868,-0.0061707413,0.0017797711,-0.000062381645,0.0069449875,0.007249973,0.0023905237,-0.006455381,-0.004848284,-0.004453698,0.0054928428,-0.005831635,0.0030284028,-0.0059294407,-0.00039586914,0.00969626,0.0049259765,-0.0023936578,0.0032032144,-0.00449787,0.0032131122,0.0054632956,0.0044326964,-0.0031556212,-0.004021368,-0.0025304584,-0.0032061816,0.0032149449,-0.005256881,0.009185218,-0.008062641,-0.0039438894,0.009117978,0.0063722255,0.0011883774,-0.00841654,-0.002450193,0.005502324,0.0048144483,-0.0028333047,0.007369769,-0.005493307,0.004842289,0.011166227,-0.002800921,-0.0024063801,0.006905954,0.0103063965,0.0020381568,0.0036378873,-0.0074262824,-0.00019560386,-0.00091765577,0.0044905175,-0.00608023,0.00021559987,0.009643096,0.009269471,0.0071845776,-0.0070906696,-0.004584395,0.0009947445,-0.0029660356,-0.005292517,-0.0031133613,-0.0025328305,0.0023799296,0.011972541,-0.0052559334,0.008655391,0.004930964,0.0070737195,0.010295288,0.0096854465,0.0030904904,0.009551633,0.008474534,0.0064747813,0.00094967074,-0.0027390027,0.0027066907,0.0015810563,0.0007850608,0.011585586,0.0028399713,0.009910643,0.0026738525,0.0068307873,0.00893028,-0.0049999957,-0.0022942421,0.0007813148,0.004203568,0.0030077945,0.008342221,-0.0065086335,0.0093718115,-0.0022442024,0.0076336027,0.0046284017,0.0034825096,0.004962915,0.0003756339,0.008915779,-0.0035212075,0.008644694,-0.0019018656,0.0018332356,-0.0008222734,-0.0013682939,0.0006985026,0.010607486,-0.000581381,0.0066834087,0.0056240675,-0.005842586,0.0048432676,-0.0033670904,-0.0001735483,0.007067233,-0.0014092423,0.0075913,-0.005905518,0.0062019085,-0.006425256,0.004322919,0.003689939,0.0087833665,0.0066564702,0.007722412,0.001665961,0.007834193,0.0023124777,-0.0016923882,-0.0038412441,-0.002711083,-0.0050784512,-0.00522272,-0.0014073973,0.002503907,-0.00037695264,0.0010286553,-0.0032548448,0.0049690185,0.007733843,0.01033587,-0.0029618733,-0.002840674,0.005522186,0.008225605,-0.0021504788,-0.0052264505,-0.0074754474,-0.0075140344,-0.0019563034,-0.00842205,-0.005066848,0.0009426553,-0.0018163276,0.00020462008,-0.005439959,-0.009287806,-0.0067709708,0.0032148336,0.007006889,-0.009008172,-0.0065765725,0.0024907792,-0.0015752584,0.0033544428,0.005550628,-0.0089765815,0.005545873,-0.00040635074,-0.0017293103,-0.0024808254,-0.0033212735,-0.0051129246,0.0036488743,0.0037047274,0.007909102,0.0028632015,0.00093463075,0.009116247,-0.002838334,0.0025963422,0.0013859633,0.011984865,-0.0011780603,0.007551021,-0.003082629,0.0048526386,0.008983581,0.0022481566,-0.0012192283,0.0049294466,-0.0016454102,-0.005742908,0.008045206,0.0049764365,0.0011157241,-0.004175157,-0.002869625,-0.005107609,0.008878465,0.0062054116,-0.009119368,0.006153672,0.005660836,-0.0067448546,-0.00555629,-0.00096775265,-0.0048751696,0.0056210626,-0.0023929358,-0.006003726,0.004969677,-0.00287274,0.008904159,0.0023365573,0.0044670175,-0.00011406046,0.0076619373,-0.006609094,-0.0072495383,0.0050014774,-0.0056252475,-0.0053349524,-0.0012569843,0.0019933183,0.0014386834,-0.0021131577,-0.006939135,0.0024878567,0.0006072319,0.010461056,-0.0009992159,-0.0019745198,-0.00656841,-0.004325946,-0.008152525,0.0001712924,0.0023673747,0.0029993108,-0.0025895091,-0.001274671,0.0018325634,-0.0034903474,0.009023377,0.005969091,0.006666711,0.0009431008,0.0048350054,0.0076063904,0.0094338395,0.0060698856,-0.007485397,-0.0075110006,0.00917458,-0.0024065708,-0.0076953815,0.0023142204,0.0051149996,-0.005907511,0.010624359,-0.0027775343,0.0073663397,0.0029930586,-0.004418069,0.0051754736,0.010472707,0.0038334962,0.010523577,0.009492483,0.009488765,0.000992248,0.010843715,-0.003474571,0.009646991,0.0008101544,0.0045519224,-0.005211177,-0.0031153527,-0.00021107036,-0.0057958607,-0.00025963478,0.000989653,-0.008402781,0.0065026544,0.008562114,-0.0036539484,0.008068973,-0.0012974064,0.0030340469,0.0046849526,0.004474427,-0.00003946177,0.009577246,-0.003389058,0.0067354096,-0.007269815,-0.0014070251,0.0073958607,0.0050610695,-0.0059372126,0.0028557573,0.0025776504,0.0044869175,0.0038060336,0.00840634,0.0103743225,0.0030066653,0.006245656,0.0030751987,0.006326187,0.002892407,0.008915408,0.008182881,-0.0043044477,0.0072617293,0.0034368797,0.0042915135,0.0076171965,0.0045187776,-0.0033427803,-0.00009856195,0.00053073466,0.008618166,-0.0058225244,-0.0053320695,0.0024219342,-0.0031491185,-0.005283043,0.0007890038,-0.0007815968,0.004908992,-0.007056336,-0.0043545584,-0.001732134,-0.0043190606,-0.0027440493,0.010470035,-0.0061059077,-0.0027523863,0.0022294566,0.0069699422,0.010295928,0.0070016575,0.009170533,0.0010054004,-0.0059395153,-0.00036039198,0.0054010074,-0.008765077,-0.009565325,-0.0068429587,-0.0054265237,-0.0062375222,0.0017159645,-0.007699281,-0.007099861,-0.008635042,0.000084373445,-0.0038663791,0.0053235837,-0.010098677,0.005546296,0.0011175238,-0.005900965,-0.008550697,-0.006843858,-0.0049649817,0.0061787013,0.009229372,0.0011118634,0.009201391,0.0059039104,0.008000325,0.01036924,0.012391683,0.0022462222,-0.0039763805,-0.0024746673,0.0009469065,0.0053955573,0.0067389053,-0.006223447,0.006776364,-0.0049766507,0.009110987,-0.0029603855,0.0019375173,0.0050736805,-0.00706938,-0.0039680856,-0.0026334883,0.005261044,0.0009847464,0.004285289,-0.006374372,-0.0027680234,0.0014321057,0.0077985222,0.006990346,0.008155251,-0.006928555,0.0073132883,-0.00088682974,0.00602911,-0.0036211554,0.0067810277,-0.007234282,-0.0009461909,0.0021236928,-0.006233182,-0.0017235049,-0.0062491074,-0.0059373854,0.0038970155,-0.0011147505,0.004330739,0.003095863,0.006335037,0.009177654,0.004599716,-0.003956889,-0.0052863103,0.003723635,-0.0022950894,0.00008756556,0.009911285,0.008134582,-0.0024814503,0.0078344075,-0.0054087345,-0.0016382886,0.008282794,0.00358212,-0.004215396,0.00897387,0.004928653,0.010449948,0.0072717937,0.0057451497,-0.003515663,0.0057555935,-0.0017428919,0.010589114,0.0020450219,-0.00046169525,0.005263258,0.0063929376,-0.0008879452,0.009316479,0.009160209,0.0038368073,-0.0054661334,0.0029174262,0.000034756966,-0.0048414934,-0.005950106,0.010069162,-0.0028312274,0.0029870477,-0.004859554,0.0072815465,-0.0024597337,-0.0018380461,0.01003072,0.012418031,0.0018406839,-0.0024687795,0.00932069,-0.004670447,0.010089856,-0.0016353095,0.0014467759,-0.0037163931,0.010429781,0.001750762,0.0023494966,-0.00398016,0.0057054497,0.0035092293,0.0020664074,0.0021297194,0.009552524,-0.007729112,-0.003892773,0.009093938,0.0044593574,-0.003615389,0.009763739,-0.0015335067,0.0025065455,-0.0057781967,0.0036652242,-0.008630342,0.0039668973,-0.0045641116,0.00031981332,0.0020419236,0.0011518823,0.00890652,0.007166144,-0.007908667,0.006507527,0.004410086,-0.0073101707,0.006945012,0.00896469,0.00063545944,-0.00128466,-0.006393993,-0.0064895274,0.0031558187,0.0097086495,-0.006139153,0.000037547023,0.008733655,-0.006400989,0.007078975,-0.003631923,-0.0075475024,-0.006052695,0.010264599,-0.0001924857,0.0020223756,0.004921482,-0.0072102025,-0.0035470387,0.01037808,-0.005871532,0.009913654,-0.0005697514,0.0019344769,-0.006212609,0.009327244,0.0092635825,-0.0019751808,0.008466947,-0.0049237795,0.00783113,-0.0007627466,0.0020937277,0.0024234708,-0.0053385426,0.0023329137,0.0067790635,-0.0030915115,0.006709745,-0.00053811935,0.0035295866,0.0037109805,-0.008402226,0.004558634,-0.0037127924,0.0050361855,0.0011816737,-0.007237623,0.003300571,-0.005195008,-0.006374034,0.0056959116,0.0016040995,-0.001885622,0.0025917622,-0.008147633,0.008236212,0.008795024,0.0075862803,0.003545124,-0.0056748437,0.0012195777,0.0047170734,0.009161315,-0.0052302275,0.007768001,-0.0031076558,0.0024096188,-0.00018287094,-0.009204072,-0.0063851546,0.005780041,0.0077915583,0.0034429785,0.010509754,0.0033446976,0.0072558546,0.005839039,-0.007685275,-0.00530699,0.003193185,0.0053415084,0.0053827427,0.010362772,-0.0069378614,-0.0075784624,-0.0071402197,-0.0051535317,0.009796755,0.0076412386,-0.003486471,0.005906887,0.0011818841,-0.006710482,-0.0031972844,-0.0052591986,-0.006141768,-0.0028040295,-0.00123206,0.008196004,-0.0048236926,0.003010211,0.0058832844,-0.0016576794,0.0035952602,0.0037173787,0.0054326355,0.006065812,-0.004001083,0.00845422,-0.005123549,0.0027132854,0.002041656,0.00079773593,-0.0017898014,0.005114499,0.0065963175,0.009128979,0.0060526393,0.009134617,0.007913928,-0.005638277,-0.006897364,0.0065614213,0.009260181,-0.00054556347,-0.006346326,0.0027303186,0.00503448,0.008526778,-0.0018692892,0.008187281,0.0010791903,0.007798387,0.011385051,0.0019214734,0.0047193393,-0.00054718,0.010395,0.009595265,-0.007228155,-0.002834496,0.0008819198,0.00034310124,-0.0061796913,0.010796696,-0.0023870226,-0.0054054465,0.0047336332,0.005531329,-0.0034330676,0.01107381,-0.0049586734,-0.0024131925,0.0030461985,0.008709824,0.0026528512,0.0095191095,0.0077862456,0.004346407,0.0006072573,-0.0013052307,0.008388325,0.01111862,0.0020785362,-0.005832775,0.005022247,0.0076146536,0.00023057178,-0.003453806,0.003512033,-0.00034210802,-0.0037095614,-0.0046720067,0.0039726817,-0.00027559788,-0.0076457206,0.0044636857,0.0001199059,0.005741984,-0.002580614,0.004527732,0.0028278092,0.007601911,-0.0026232277,-0.0014199079,0.008073929,0.00874598,-0.0040316014,0.0076235053,0.0018044172,0.007759309,0.0037272633,-0.0045388723,0.0061977855,-0.000778134,-0.002637,0.0024977303,0.0049596913,-0.0033832188,0.004076769,-0.000108754495,0.005347437,-0.006273599,-0.0038920366,0.0025904838,-0.0047332067,0.004883449,-0.0020573558,-0.0030132995,0.0033993952,-0.0015517548,0.0048422273,0.0010572796,0.010608283,0.0060032667,-0.004590582,-0.005179655,-0.0038183567,-0.003748112,-0.0003387578,0.0021399746,0.0055866414,0.00797943,0.0074462667,0.003313555,-0.0066017006,-0.0034838656,-0.006105363,-0.0026851408,-0.003396367,0.003965421,-0.00058763154,0.007800482,0.007124422,-0.0012751359,0.00763174,-0.0013305233,-0.00020214674,-0.0005398428,-0.005166396,-0.0014048923,-0.00062270905,-0.0032897843,0.0013259955,0.00872683,0.0022191452,0.0051033124,0.009691049,0.006953095,-0.0058475975,0.009046173,0.0044234227,-0.0046665464,0.0019423803,-0.004074138,0.0066678682,0.00729023,0.0073759323,-0.0018605392,0.0048850826,-0.008917641,0.009391539,0.01119718,-0.0068706814,0.0037003248,0.007891288,-0.0031605244,-0.002542085,-0.0068290005,-0.008789933,0.008929779,-0.0067580724,-0.005952552,0.0080174375,0.00903215,0.0011960673,0.00085863937,0.0031101631,-0.00408247,0.007534018,-0.0056293556,-0.005299258,-0.0019335484,-0.005587629,-0.0038051542,-0.000670902,-0.0061829044,-0.006720695,-0.0055924784,-0.0012363158,0.0001738852,-0.00034707715,0.008630226,0.004139422,-0.0066473363,-0.0059177773,0.009376408,0.0035274778,0.004764757,0.0019434524,0.009056427,0.008797941,0.0007811452,0.0028592113,0.0075482,-0.008264157,0.008439006,0.001932984,-0.00868551,0.008758669,-0.0066647865,-0.0069885612,0.0069752894,0.0002459685,0.0009867448,0.012321601,-0.000007253854,0.009474619,0.002205306,0.006613643,0.004588036,-0.000694922,-0.0027216892,0.008789028,0.0030895735,0.0075227027,-0.003542003,0.004297476,0.004925053,0.0053833053,0.005638106,-0.004707658,0.005560061,-0.0040035388,0.01099854,0.009558537,-0.0019514062,0.009000766,0.009565905,-0.0015137828,0.0035914467,0.0055880332,-0.004119568,0.0029995297,-0.0023721014,0.004301417,-0.0061784517,-0.007191931,-0.0016479708,-0.006605395,0.008880296,0.004218589,0.0045327856,0.0052283728,-0.0041096793,-0.007940169,-0.0032908032,0.0042544925,-0.008731781,-0.006403883,-0.0050356733,0.009360429,0.0028247049,0.008805881,0.0032587624,-0.0038637246,0.009537067,-0.002274626,-0.008422556,-0.0005556811,0.0047130357,0.0029754846,0.0011140234,0.0043818965,0.00944697,0.0039948295,-0.0013476409,-0.00858622,-0.0035992605,0.006910831,-0.00910119,-0.0030417002,0.007190501,0.0029944198,0.004804868,0.009311515,0.0054556075,0.009347735,0.005296545,-0.002636017,-0.00018324412,-0.0010859941,-0.0012858657,0.009370956,-0.006275572,0.00895414,0.0017577863,-0.0026445428,0.006494063,0.0025755025,-0.0015359295,0.007826308,0.006167784,-0.0008245222,0.0010910926,0.005732713,-0.0045603304,0.0051921974,-0.0036376272,0.007095538,0.006367464,0.009392201,-0.003288908,0.00091775175,-0.0030630422,-0.0011095905,-0.006987978,0.0007795193,0.007323941,0.0013258597,-0.0070279664,-0.0014364554,-0.0051780064,-0.0020988854,-0.0007091674,-0.0046051573,-0.0022400704,-0.008933953,0.005287214,-0.0029428417,-0.006544803,0.0054235095,-0.0013914707,-0.008319159,0.0032394226,0.00023049182,-0.0064845164,-0.0054194266,0.009291765,-0.006532407,0.008427966,0.009461279,0.0043601324,-0.0064034085,0.0063940743,-0.0032071024,-0.0049214535,-0.008761568,-0.0040987744,-0.0019057399,-0.008074458,-0.0020257114,-0.0083976425,0.0034022136,-0.006239626,-0.00018806814,0.0010848382,-0.001646115,-0.0016500406,-0.0073904973,0.003964126,-0.00075983076,0.001521434,-0.00026470955,0.005568847,-0.00660566,-0.0040373523,-0.0072370074,-0.006700891,-0.0042887367,-0.004119694,0.0075868424,0.0011431578,0.0020710153,-0.0010695537,0.0072433446,0.00014976987,0.00078649406,-0.00088280375,0.002007965,-0.000419193,0.009491137,-0.0014574481,-0.0030457156,-0.004084447,-0.004965291,0.0022967292,-0.0009842685,0.008474611,-0.007701506,0.0007555337,0.0033889506,-0.006797221,-0.0012961708,-0.0064786207,-0.00599231,-0.0027816026,0.006047968,0.008089617,-0.0029335956,-0.0039033764,-0.0018089581,0.004139631,0.0055881557,-0.0027304294,-0.0074116345,-0.0027167802,0.010580323,0.009238584,-0.008033859,0.003840993,-0.004726387,-0.0073953853,0.012108853,0.009846691,-0.0056028375,0.0016681213,-0.0011265172,0.0048434534,0.005158638,0.00052284566,-0.0074206414,0.009030626,-0.0031289142,0.007596653,-0.0046913303,0.0003325978,-0.0050863014,-0.003103371,0.0053954693,-0.0017796584,0.0047597955,0.0007479681,0.009676265,0.010787549,0.005062864,0.008142867,0.00012492659,-0.0021170864,0.0007698544,0.002840218,0.008110854,0.0069342763,-0.0031149588,-0.0028833975,0.0059242584,-0.005534128,-0.005979286,-0.0071174568,0.010148559,0.0060829404,-0.002491818,-0.005809932,0.009791663,-0.000989649,-0.001116769,0.0022157596,0.006034777,0.0046204403,0.009263906,0.0073831994,0.00497347,0.009567811,0.00443057,-0.004172083,0.0053172316,0.0054435525,0.002687216,0.0059691337,0.0032413434,0.004663738,-0.00013997311,-0.0021056978,-0.00012967204,0.004935383,-0.009693175,-0.0015782573,0.0050343038,-0.0051467787,0.0040001054,-0.0015623275,-0.0046350113,0.0015538782,-0.006747488,-0.0030989074,-0.0029641765,0.0038818202,-0.0033048138,0.006513915,0.0042760964,0.0073342808,0.0041668527,0.0014273386,0.006097822,-0.0016777759,-0.0063572587,0.00092977396,-0.008161254,-0.00092781347,0.0018074759,0.007740191,-0.00061992166,-0.001947476,-0.0019921295,0.005690964,-0.007471313,-0.00023776115,0.0038182414,-0.0046834275,-0.008932759,-0.0054601813,-0.007537984,-0.004320202,-0.0023390232,0.0015308874,0.00714094,-0.0037101714,-0.0030745945,-0.0022023101,0.00037961776,-0.003101284,-0.0036720743,-0.0013866631,-0.004556362,0.0035775257,-0.0019729913,0.0039793034,-0.0009478055,-0.008755134,0.005954271,-0.0016575102,-0.0057321107,-0.004933741,0.000048863934,0.00000461154,-0.007140459,-0.01006776,-0.0046685096,0.0034690339,-0.011027429,-0.009521017,-0.009917421,-0.0017549251,-0.0013174597,-0.010210276,-0.0051182033,0.0009453039,0.009392883,0.010288586,0.0006486716,0.00484568,0.0001237052,0.0071289754,-0.007209862,0.0028439814,-0.0038505555,0.003140285,-0.0020836496,0.0014258055,0.0055615334,-0.006748685,0.007555721,-0.001739244,0.0014105366,0.0012925369,-0.0043547256,-0.004859759,0.00057418906,0.0033670196,-0.004248422,0.0062263706,0.009015614,-0.0017893305,-0.004215053,-0.0044819685,0.004700183,0.0064836815,-0.0048295725,-0.0026979155,0.0041736225,0.00050566054,0.002313655,0.009392741,0.0017930096,0.0010890589,0.002038555,0.00023047712,-0.0072499234,-0.0038995994,-0.0020569225,0.000972725,0.010213,-0.006774849,0.00022487801,0.008233811,-0.0006308386,-0.007197298,0.009231719,0.002832143,0.008410035,-0.00020799786,0.00023507103,0.00271709,-0.0054364773,-0.0068768817,0.007780601,0.006091925,-0.005685747,0.012107243,0.01010469,0.0040148916,-0.001477059,-0.0041634967,-0.0064545693,0.0026717584,0.010224832,-0.0066516115,0.002038627,-0.0021616754,-0.0034806372,0.008393617,-0.006320204,0.0006100663,0.0014316854,0.008866261,0.009007484,-0.003783518,0.0043566707,-0.0036867177,0.002965383,0.008850694,-0.0050157686,-0.00027108248,-0.006154189,-0.0058309957,0.009908064,0.0065540276,-0.0076795043,0.01003731,-0.0054372065,0.00055365305,-0.0058426578,-0.0033676224,0.0019715426,-0.0021723844,0.0069899303,-0.000044667322,0.0021783444,-0.0041529513,-0.008665723,0.0031894401,-0.008142261,-0.007764788,0.011494127,0.0077514322,0.001477529,-0.0061210003,-0.005812937,0.007110753,-0.0013599118,0.007657908,-0.0042435685,-0.004875728,0.008590964,-0.0052047777,-0.0017005788,0.0052127233,0.0015785603,0.00007707433,0.0035712712,0.0019200923,0.0072634188,0.0032184618,0.005718105,-0.0009519955,0.0005385246,0.000062712934,0.0011856862,0.003698686,0.008877408,-0.0014346521,-0.00064845686,0.004976492,0.0043300907,0.0032468943,0.008925003,-0.00044266297,0.005879289,0.00024305559,0.007722628,0.00638276,0.008527849,-0.001956791,-0.006100591,-0.0039478145,-0.0034539655,-0.003113854,-0.009232723,-0.006830999,-0.009568431,-0.0046058916,-0.0023076904,-0.0047136913,-0.007188561,0.0009659167,-0.0028137956,-0.0042914078,-0.009392025,0.004389374,0.003895921,-0.0074051023,0.0049430015,-0.0025314852,0.0052528894,-0.0042086826,-0.0024653992,-0.0096995635,-0.0063185254,-0.003965825,0.0018952813,-0.009432751,0.0068750624,0.001239295,-0.0055070044,0.0066991067,-0.00734478,0.0053273602,0.005438042,0.0048108064,-0.0065749655,0.0031713794,0.0044212453,0.0060458938,-0.0049911994,0.003084892,-0.009640786,-0.011760349,-0.0015436723,0.010677107,-0.00035800002,0.0053688874,0.009460894,-0.0064402074,0.0008699768,-0.004470259,0.007616386,0.0049178475,0.007229641,0.0066585317,-0.0010971924,-0.006275206,0.00040455055,0.008748711,-0.003381558,0.0036969637,0.0016470464,0.0033988964,0.0074266926,0.0050340355,-0.0058332677,-0.0010385917,-0.004432056,-0.0035330586,0.0038658532,0.008339989,-0.0005928201,0.0052981116,-0.0028530501,0.002042783,-0.002650705,-0.007148658,-0.002665636,-0.0030505352,-0.004690716,0.0027010913,0.0021636677,0.0026547993,0.0065464885,0.006554796,0.0033110431,0.0045237048,0.00083521986,0.0018972387,0.0001725256,-0.005175964,0.010437664,0.00633751,0.0074207853,-0.0037145033,0.009857538,0.0046473406,-0.0023815078,0.005270891,-0.0055530914,0.009659941,-0.002898601,-0.008056712,-0.002310822,-0.006166075,0.003148586,0.0042316397,0.0051255645,-0.006656102,-0.0033595588,0.007131701,0.00014059928,-0.0013160346,-0.0006507579,-0.0051481347,0.008645941,-0.004300407,-0.008328311,0.0014589869,0.0053221607,-0.006273701,-0.00073265686,-0.004230873,-0.007325656,-0.0029290263,0.0094761,-0.0042762193,0.0018470576,0.0030816707,-0.0056186,-0.00014916244,-0.0011041793,-0.000011526151,0.007587834,0.0024049783,-0.0012821743,-0.00013750308,-0.006773512,-0.006508078,0.0049505834,-0.0041136774,-0.0056415405,-0.005750223,-0.0034160188,-0.00022031291,-0.0010907898,-0.006157494,-0.005046881,-0.0017334332,0.005863878,-0.00041411724,-0.0013764019,0.010092903,0.0066876733,-0.001245217,0.0035454254,-0.006632174,0.008447322,-0.0063609486,0.0046373717,0.008069639,0.011087339,-0.004909808,0.0039461534,0.007170968,-0.0038683645,-0.0046574087,0.008288472,-0.0072242487,-0.0055976734,-0.0075084222,-0.00039517996,0.0068362686,0.007435275,0.0008397401,0.0021989457,0.005287462,-0.0036703683,0.003256014,-0.0047448114,0.007829921,0.0018403273,-0.004930959,-0.005682895,0.008711799,-0.000658232,-0.0010873417,0.0054195733,-0.0012279995,-0.0021620304,0.004240624,0.000084358944,0.0023259586,0.004042639,0.008195648,-0.009199963,-0.001428096,-0.0014927059,-0.0057812133,-0.006716969,-0.00028991583,0.0018311844,0.0062149195,-0.0010012278,-0.0003859221,0.0011061877,0.00041997086,-0.002728697,-0.00481922,-0.0023081303,0.0018203184,-0.0041326,0.0014318565,-0.005505714,0.0051419,-0.00018189974,0.0040428652,0.007467391,0.0036740936,-0.004775626,0.00007286401,0.009263424,0.0061700195,0.00127324,-0.0051603112,-0.0025925469,-0.0009137025,0.009080725,0.006585205,0.0015877666,0.004378963,-0.0051136306,-0.011441734,-0.004246646,-0.0016819859,0.006180925,0.0071389247,-0.000968918,-0.007936114,-0.0032460913,0.004480372,-0.0034692814,0.009400628,0.0021361609,-0.0061571253,0.0025173228,0.0057162354,0.0019247404,0.0004379229,0.005092103,0.000244187,-0.0048495303,0.007525491,-0.0035255938,0.0031020474,0.0044327285,0.0028533752,0.0056550945,0.0043273955,0.00598747,0.0107454425,0.009150375,0.009375995,0.00008225361,0.0029303203,-0.0033384857,-0.0011281419,0.006647819,0.0047253463,0.008109765,-0.0077330056,0.0039585745,0.002716355,0.0030395188,0.0035654602,0.0107279215,0.0034352157,0.0070240307,0.0053163404,0.0010877,0.0005072028,0.0036999395,0.006968132,-0.0022910351,0.00029485763,0.0048266803,-0.0049303332,0.005148007,-0.009595298,0.003911947,0.005535357,0.008228714,-0.0033137484,0.010243681,-0.000113357644,-0.00497518,0.010525472,0.0031834033,0.012106236,0.0012597168,0.0009742423,-0.0019795047,0.006584227,-0.007857848,0.0017028858,0.0043664486,0.009826735,-0.0017953756,-0.0060990043,-0.006914788,0.00040666485,0.009672315,0.003463648,0.0074532735,0.003077209,-0.004458947,0.0037325039,0.002144689,-0.0023247404,0.0060729994,-0.0047389264,0.006580589,0.0018326868,0.009639808,0.0070351833,-0.0042913584,0.010470114,0.0037039984,-0.004206064,-0.0064815464,0.00039910723,0.0009377564,0.0075571826,-0.011886688,0.009148753,-0.00027331352,0.003263444,0.008322914,0.006603789,0.00010192136,0.005569582,-0.008837092,-0.0052617732,0.010077589,-0.0015005445,-0.004269259,0.008107863,-0.0050819386,-0.002012138,0.0022652254,0.0045568654,0.0041011213,0.006423883,0.005090396,0.006026874,0.0014406366,-0.0010622645,-0.0012354723,0.0061016157,0.0012746954,-0.0014940359,0.009715152,0.008868661,0.007185959,0.011471217,0.006355898,0.006637418,0.0028933007,-0.007591308,0.005868881,-0.0035189549,-0.003909054,0.0077761523,-0.00674321,-0.00060306035,-0.00103885,0.008772996,0.0076099304,-0.00043136292,0.0033098129,-0.008375246,0.002659385,0.0027558152,-0.0070641926,-0.0044130315,0.0072920076,0.004480702,0.00060679246,0.00922037,0.003222997,0.0059812204,0.0063973265,0.00027063684,0.00051605894,-0.0018961602,-0.005860627,-0.0035824182,-0.0084545985,-0.0062757363,0.002197162,-0.004225399,-0.0089408755,-0.006132333,0.004671153,0.006950978,-0.0013924582,-0.0040972,-0.0035250296,0.0038280846,-0.00035345025,-0.0038383685,0.0049760495,0.0053883246,0.0035223954,-0.0049269777,0.00028542604,0.0010478594,0.0051771705,0.0016911445,0.0066742483,-0.0039019696,0.0061409343,-0.0077344202,-0.0013548967,-0.0006339859,-0.006052076,0.003807188,-0.0015712697,-0.0013949717,-0.008308849,0.00237173,0.004140826,0.0037241548,0.0028328719,0.0026062464,-0.00036639228,-0.00023122734,-0.00062304235,-0.0052294247,-0.0070669283,0.0011689528,-0.0006480478,-0.0011345181,0.008010795,-0.0037998972,0.000973169,0.007687699,-0.0008793822,0.0039638234,0.004439002,0.0072056036,0.006230523,-0.0039039832,0.0072694463,-0.007003425,0.0072936676,-0.0056701144,-0.005995229,0.0079950625,0.00799759,-0.0023108025,-0.000033708497,-0.0012169783,-0.00292833,0.009594811,-0.008275255,0.003433768,0.0023052783,-0.0041014436,0.010156479,0.0017658959,0.0016626541,0.007922496,-0.00085217744,-0.0026814013,-0.000028192708,-0.0021595326,-0.000734545,0.001031563,-0.0015187371,0.00029134518,0.010260272,-0.0017098229,0.0029668487,0.0049336674,0.008921929,0.0072882967,0.008918422,0.0039084805,-0.00340844,-0.0028365308,0.0016335768,-0.0015897066,0.0046887198,0.010048014,0.0049692136,-0.0004940582,-0.0023528244,-0.0032454354,-0.0028486664,0.0018312677,-0.003583621,0.0074903173,0.0038898543,0.008507137,-0.005710587,0.007572744,0.005790487,0.008104095,0.0065832795,0.0023940052,0.010001541,0.01009361,-0.005100568,0.009011504,-0.0077830055,-0.0019245391,0.009516063,0.0024071585,0.00659054,0.0030825285,-0.002192998,-0.0049140416,0.009376387,0.0028518445,-0.0031370495,0.010093835,0.008321936,-0.0074981223,-0.00540634,-0.00462062,0.0065981536,0.0010230839,0.008761492,0.0020683252,-0.006217364,-0.0020137755,-0.0062175314,-0.001964073,0.0017085682,0.0051907045,-0.0030535571,0.0044466592,0.0036244062,0.007087618,0.0034941975,0.0018369688,-0.0032806748,0.008350787,0.002254266,-0.006523208,0.0073145684,0.0077181486,-0.002537331,0.009250539,-0.009062037,0.0034250647,0.0066935634,-0.0012713962,-0.0068788016,-0.00058060995,-0.00033826148,-0.008067134,-0.004719117,-0.0052892053,-0.0051719546,-0.0054954984,-0.0023647812,-0.0032969294,-0.0005365571,-0.008098906,-0.00029060995,0.008577387,-0.0035238932,-0.0023069885,0.0011861002,-0.0056501683,0.007423737,0.009185574,0.009760435,-0.005542303,0.0036505817,0.0022755691,-0.00012209332,-0.005452366,0.0004524862,0.0029590626,-0.0057744724,0.00728179,0.00097167067,-0.0008367066,-0.0072257654,0.0020459408,-0.001795286,-0.006223763,-0.008282879,-0.0061381347,0.0051719984,0.006924668,-0.0062351096,0.0050955415,-0.0013452864,-0.0061591365,-0.0039394163,0.007883696,0.0037016291,-0.00007787025,-0.0068172673,-0.0022239948,0.0047114394,0.005086335,0.004692032,-0.008097231,0.0035800585,0.0028303242,0.006250538,-0.0041314107,-0.008584659,0.00063915097,0.0054505863,-0.006538704,-0.0043140417,-0.0013956028,-0.0047692475,0.007837693,-0.008240291,-0.0044638803,0.002250549,0.008475357,-0.00068579393,-0.003648239,-0.0031325163,0.00384653,-0.0042492338,-0.0026696448,-0.0066613853,-0.00014413356,0.005809979,-0.0017736149,0.0006992182,-0.0030294093,0.0048992,-0.0022996247,-0.008361129,0.00018499783,-0.0012380183,-0.0024246115,0.0044180276,-0.000070825445,0.0038116323,0.0033043236,0.002481618,0.008749548,-0.0027267204,0.0062864255,0.0057879435,-0.002692578,-0.0056991805,0.009686354,-0.008108654,-0.00044943774,-0.0025449567,-0.0018371168,-0.001821819,0.004782147,0.00951263,-0.007194849,0.004762403,0.011511124,-0.008556672,-0.0027189285,0.00673736,-0.0067683607,-0.004319332,0.004597062,-0.0031472761,0.0058458666,-0.0024578546,-0.0046566334,-0.0039477358,0.0005784235,0.0019929423,0.011288211,0.007069455,-0.008001059,-0.0039048232,0.006039019,0.0021874558,-0.0062653357,0.005509982,0.01001978,0.002484543,0.0050338306,-0.0072823022,0.0026279397,-0.0017803141,-0.005362408,0.006161616,0.0002739142,0.007932334,0.0012810164,0.011397038,-0.004938217,-0.0032979725,-0.0014676938,-0.006526734,-0.0021042696,-0.0063633774,-0.00023475567,-0.0056542703,0.006016522,-0.011063904,0.0009558173,-0.0024290425,-0.00931455,-0.0041768616,0.0043151053,-0.0046773907,0.0019847245,0.0071514146,-0.008932513,-0.0064953533,-0.0069776857,-0.007408087,0.005066495,-0.006768165,0.008423581,0.00791461,0.00011592745,-0.003737304,-0.0027149236,0.0077806334,-0.0032215007,0.0020607633,0.0040430813,-0.00257739,0.01056071,-0.0058948924,-0.008941142,0.0008600235,-0.005933652,-0.0062143602,-0.0077478634,0.007913811,-0.0026564263,0.0060937745,0.0062980717,0.0066952948,-0.0076358025,-0.0012736087,0.0035003584,0.008321352,0.005583468,0.0008344939,0.008000434,0.0023933405,-0.0026182202,0.0039314185,0.004821194,-0.008878685,-0.0017083742,-0.0071894974,0.0067061856,0.0009023986,-0.0015917176,-0.0069331145,0.0029405302,0.0062565687,0.0053005167,0.010021439,-0.00095526676,0.0013731587,-0.0011112796,0.00068844715,0.0032880525,0.0007559469,0.0054738577,-0.0019355102,-0.0058834944,-0.0048864493,0.004298506,0.00012996823,0.008246241,-0.003297116,0.005582866,0.0006355107,-0.00935577,-0.0037189045,-0.0086381985,0.00036684322,-0.007855091,0.00058010576,0.0008673437,0.0016982647,-0.0047768448,0.0014305428,-0.0066421414,0.002163377,-0.00016250624,0.009709019,-0.006478657,-0.005589737,0.007938931,0.0070964145,-0.003503333,0.0054346584,0.0068051065,0.00041978236,0.004257861,-0.008375982,-0.0032766988,0.00497109,-0.003849631,-0.0016457115,0.007423264,0.006282579,-0.008868402,0.0039834264,0.002214588,0.0036917557,-0.0033229522,0.0043903682,0.0057456642,0.0034432854,-0.00483449,-0.007996748,-0.0032636398,-0.0032779162,-0.006587542,0.009362297,0.010956,0.0015665834,0.0023013605,-0.0038613467,-0.0071239565,0.0023913872,-0.0061481185,-0.0004513385,0.009868179,-0.0066218176,-0.0030145198,-0.0008453599,-0.0062250327,0.0003652915,0.007699258,0.0070674294,-0.0066803717,0.0074577755,0.00353052,-0.0068383687,0.008540339,-0.0020938811,0.0021463637,0.0054268423,0.005020268,-0.0074313786,-0.00060180045,0.0006070996,0.007235096,0.008803633,0.009073317,0.0064884718,-0.0019156786,0.008953468,0.004728412,0.009720997,0.000454452,0.0011782295,-0.000027961067,0.0083869435,-0.0027587358,0.0018042685,0.006861493,0.0062211077,-0.005442489,0.0074737724,0.00402214,0.0074391817,0.007148987,-0.0017043744,-0.0060748057,-0.0013548172,-0.0077417493,-0.0013713884,-0.0044167545,0.010230032,-0.006521453,0.005017658,0.008401094,0.0011994586,-0.004264367,0.009877731,-0.0002570078,0.001657573,0.0020283188,0.00039962836,-0.00091357646,-0.00598939,-0.003016827,-0.0067737764,-0.009346978,-0.0025946049,0.0021641173,-0.0037497757,0.007884707,-0.0019342597,0.0047199046,0.001764974,-0.0006778638,-0.005867217,-0.0064505828,-0.0015400213,0.005611247,0.00006845705,0.005365526,-0.00445833,0.0011614441,0.0042365417,-0.009547412,0.0018612543,0.01121492,-0.0017885366,0.00586077,0.00840631,0.0071227145,-0.004560812,0.004814114,-0.008003961,-0.0038259865,0.010548636,-0.004270805,-0.0024665066,0.010305844,0.00072011666,0.0069175647,-0.0027990423,0.0030182905,0.00073986093,-0.002995171,0.0017127788,0.004872046,0.003898962,-0.0012147564,0.0013698622,0.0006126458,-0.008372592,-0.008016064,0.0037073952,-0.0014720968,-0.010684733,0.0013307994,0.0043969434,0.0009305835,0.0015054768,-0.002396521,0.0009599423,-0.009187516,-0.0042261216,0.002555211,-0.004803132,0.007632046,-0.006671963,0.0008656247,-0.0029001918,-0.0024306534,0.008157473,-0.0076553463,0.0043484424,-0.0026883876,-0.0049426286,-0.0033533801,0.009559226,0.0004185526,-0.006307034,0.0048550298,-0.009075063,0.0060560545,-0.006977769,0.0019460279,0.0019982327,0.002688501,-0.0045320396,0.004801923,0.007808172,-0.00513729,0.0015670267,-0.00081533095,-0.0033901678,-0.008083665,-0.0071512153,-0.010021758,0.0035500953,-0.004740329,0.0011101023,0.0073042414,-0.0025413362,-0.006304088,0.0071567656,-0.008500793,0.0054407385,0.0016441616,-0.009902957,-0.0031435096,-0.00014744031,0.008977633,-0.0032890385,0.0066817743,-0.0075215497,-0.006809674,-0.0084890025,0.008323345,-0.0006385543,-0.0061751045,-0.0027174107,-0.00034180345,-0.0034237118,-0.0026785189,0.0069123167,0.001051692,0.008240756,0.0012140954,-0.007195806,-0.007094487,0.0023819066,-0.0031536594,-0.0040593795,-0.008325665,0.002787065,0.009448434,0.0042421278,-0.0020664248,0.0047830115,0.0088155065,-0.0036786788,-0.00516051,0.002126371,-0.0058349073,0.0055659045,-0.0062936037,0.010008857,0.002298435,0.009248468,0.009805891,0.004960448,0.0014798647,0.0058539803,0.0075890147,-0.008798396,0.003969098,0.003952415,0.008173676,-0.0019041909,0.0041356236,-0.00039088516,-0.0009791795,-0.0007893015,0.0021708868,0.0068103313,0.009117789,0.0026955628,-0.00016212575,0.0006835649,-0.0066154073,0.0075492566,-0.0036423616,0.0012476743,0.0034696315,0.006175708,0.0050330595,-0.006343132,-0.0032315562,0.005161406,0.0025717805,0.0064016087,-0.0028743965,-0.0033462895,0.0059421984,0.0022899164,-0.004959482,-0.002505067,0.008304053,0.005279538,0.004059802,-0.0007709603,0.0060757836,0.009915512,-0.00088847254,-0.0031417734,-0.0039420193,0.001467362,-0.0034828384,0.0057978546,0.005413837,-0.0031346602,-0.001508118,-0.007052269,-0.0038090579,-0.006873175,-0.010161421,-0.006040117,0.0037138907,-0.0037666797,0.0061871335,-0.004554215,-0.007153698,0.0041394327,-0.0074279467,0.000015979995,0.00051767816,0.0077048815,-0.00083286664,-0.0048488337,-0.0028978833,-0.0048404303,0.008447624,0.00255079,-0.0053229304,0.0023393438,-0.0022320577,0.00722172,-0.0012390653,-0.00055620837,0.0026000238,-0.004760039,-0.0024346507,0.0034353444,0.0073432643,-0.008607966,-0.003957516,-0.0054095085,-0.0073991623,-0.004808755,0.002719808,-0.008572072,0.005032584,-0.006015292,-0.009452052,-0.0037130318,-0.0018318647,0.0035993208,-0.01022905,-0.006754355,0.0027944036,-0.009788036,0.0035258424,-0.00615641,-0.0058763693,-0.0019217866,-0.00021403907,-0.004745647,-0.004017611,0.008403486,-0.005183717,0.007755326,-0.0055047614,0.004819847,0.0079739615,-0.0045257127,0.00052728486,0.00034730215,0.0010456941,-0.010314188,0.007420371,0.0036331571,-0.0002325865,0.0004119321,0.005861805,0.00057070435,-0.0012381576,0.0044676196,-0.004643853,0.0043873484,0.0003145716,-0.0110266125,-0.0023239802,-0.0048300815,0.0018208085,0.006625813,0.0024314485,-0.0050168154,-0.00039877382,-0.0050200596,0.0016064276,-0.0035598893,-0.0035130118,-0.007479449,0.008221502,0.002418135,-0.009474191,-0.00090373063,-0.004250067,0.0023806184,-0.0084021045,-0.0006908229,0.00033515383,0.0017368783,-0.008198221,-0.0019347774,0.000081360005,0.004993629,-0.007810235,0.004918939,0.0095956605,0.0041094725,0.006578534,0.0028987983,-0.006966013,0.0075616473,0.003785374,-0.009611477,0.008803838,0.008611247,-0.002842684,-0.004483044,-0.00030895346,0.0038515017,-0.007583357,-0.0055300477,0.0056056613,-0.0010775866,0.0056788186,-0.0013609465,-0.00003696513,0.010389869,0.0009585955,-0.0068816347,0.010693524,0.0007894427,0.0064728186,0.010254139,0.009448933,-0.0010818013,-0.0063362597,0.0068016415,0.0029930286,0.009470975,0.00043246718,0.003948863,0.0069389986,0.006382452,-0.0044765305,-0.0038630443,0.004443768,-0.005550982,0.0028606781,-0.003052501,-0.0009062771,-0.0017710607,-0.0039501796,-0.0066710436,0.0003974446,0.003968768,0.0032923173,0.0059811412,0.0075007677,-0.004024676,0.008901958,0.0002444917,0.009061244,0.0108891,-0.008394431,0.0025288898,-0.0022440122,0.006549659,0.0066862167,0.007417067,0.009033437,-0.0009676654,-0.005243228,0.005740054,-0.0024990498,-0.0003837169,-0.0028679317,0.0018859566,-0.005691623,0.009240761,0.0068385825,-0.006423135,0.008465573,-0.0036043783,0.0071735666,-0.0035354223,-0.0023941535,0.00064983766,0.0014261852,0.0037400331,0.0012302774,0.0072262245,-0.005726145,0.003989839,-0.0033470637,-0.002307456,-0.0062524504,0.004320157,0.012448101,0.0015461593,0.00401195,0.006504819,0.0024309058,-0.007603509,-0.00074958365,-0.0061886,-0.0013208719,-0.0034726234,0.0056568026,-0.004762741,0.008815427,0.00028692413,0.0040904335,-0.0024787686,0.007094497,-0.0052525536,0.011087011,-0.003194337,0.005249179,0.002497575,-0.0021260662,-0.0067737405,0.008166085,0.00802663,0.0049148435,0.0077480376,0.007870344,-0.009295332,0.0012836325,0.0046977536,0.0050897077,0.0025896279,0.006085301,-0.0062553515,-0.0058749635,-0.0011926712,0.00037684976,-0.0012398689,0.0051430515,0.004032696,-0.004242641,0.0005515418,0.0048077656,-0.008594205,-0.0022241445,-0.0003718934,0.0043856837,0.0074794935,-0.00056973234,0.008743335,-0.0024287712,-0.009022671,0.0058500203,0.0033971432,-0.0028889005,0.0009492716,0.0051389397,-0.007459861,-0.005395346,0.005164016,-0.0019520378,0.0019660357,-0.00014862667,0.0026306908,0.002715927,-0.0067705405,-0.0045621665,-0.00746696,-0.008449478,-0.0028101988,-0.0025248537,0.0002810961,-0.010320742,-0.0053293467,-0.0067793755,-0.010560195,-0.008272262,-0.001986993,-0.0027389838,-0.003407668,-0.0038442875,-0.0070113963,0.007199524,-0.0012327818,-0.0061173816,0.0025185996,-0.0025441628,-0.002904846,-0.00773402,-0.0050698915,-0.0031906988,-0.0061134063,0.007884473,0.0062766145,-0.0024984481,0.0071531204,0.0009133385,-0.0063798614,0.0018416765,-0.0007168997,-0.004608002,-0.002642233,0.001186463,-0.00076798274,0.0075786966,-0.007039609,-0.0024573023,0.0075360476,-0.0027907372,-0.0012548007,-0.0040436224,0.0014916449,-0.0077334424,0.010203341,0.0055489163,-0.0053521474,0.007162658,0.0010680788,0.009603595,0.0009429021,-0.00082260184,-0.0073748073,0.0058522536,-0.006434085,-0.006360816,-0.0068863616,0.0048740623,0.0010593056,0.0028975557,-0.002908971,0.0052387738,-0.0071177618,0.0070173573,-0.0084800655,-0.00069813844,0.0068681426,0.0045336355,0.00094218756,0.00059986656,0.00082046696,-0.0056564235,-0.00000503089,-0.007906564,0.008736827,0.0027969514,-0.0009841627,-0.0027653675,0.0014577884,0.0019165154,0.009178347,-0.0038368392,0.0030462244,0.00627847,-0.0069482797,-0.0014527318,0.0021631075,-0.0064314874,0.003835726,0.0082741035,-0.0031952627,0.007753934,-0.0025577708,0.003935592,-0.0056914045,0.0053418614,-0.0032639015,0.0010654202,-0.0017423723,-0.005509828,0.0014815994,0.000532002,0.0092682205,0.0070146834,0.0044543133,0.0068257283,0.00023545978,-0.0026019604,-0.0051168413,0.008340333,0.009610888,0.008949841,0.0010044638,0.007266804,0.00909653,-0.004836133,0.0023271586,-0.0036478597,0.011121524,0.00854739,-0.00094865274,0.0049742274,0.007968503,-0.00666036,0.011634868,-0.000045774883,-0.007902772,0.008609003,-0.004072917,0.0061336425,0.009501734,0.004285104,-0.0012472325,0.0007679858,-0.0040785163,0.0008987745,0.0057387087,0.007681441,-0.0015536267,-0.0042498102,0.0056219245,-0.0055296756,-0.00763314,0.0059522716,-0.010505662,-0.004619526,0.008203345,-0.00095645833,0.00696559,-0.0018951546,0.0054186573,-0.0030224281,0.0017090715,-0.00016091696,-0.006188565,-0.0018437166,0.006184902,0.0070976326,-0.006025768,-0.004645485,0.0047916803,0.007054156,0.00052450574,-0.0027505113,-0.004330522,-0.0038621477,0.00825556,-0.007993542,-0.0037107465,-0.0038156116,0.009112492,0.008179822,0.009548387,0.0003229442,0.006917778,0.0058020786,-0.0043039336,0.007125204,-0.00023509476,0.009901283,-0.0048397165,0.0052732592,-0.005502052,-0.0045953607,0.005551257,-0.0018071878,-0.01049648,0.0058880383,0.0073057865,0.0062693916,-0.0048450306,-0.0054014903,-0.0059327893,-0.0038766495,0.0036036822,-0.0036912528,-0.00954696,0.0069034,-0.004528062,-0.0041329814,0.007867059,0.0056582782,-0.0033824362,0.0013062283,-0.0008208068,-0.004702723,0.008000054,-0.0008114098,0.0034396516,0.0053624273,0.0020958364,-0.0009837624,0.00018390971,0.002252302,-0.00386529,0.009348417,0.008107941,0.007979716,0.0016628456,-0.0018915704,-0.0051154103,-0.0012866076,0.0033553138,0.0036559019,-0.0015211399,0.007979965,0.008495359,0.0045984997,-0.0019973556,0.001937061,0.0038487797,0.003512475,0.0064285654,-0.009035267,-0.008383457,-0.0031380896,0.0051411716,0.0001167104,0.0019245741,-0.00343962,0.00063098635,0.008821962,0.007627835,0.00069622195,-0.0066045607,0.009495807,0.00075462484,-0.007355545,0.00034837014,0.0030121445,-0.006683318,0.002386597,-0.0075574587,0.0037442332,-0.002631122,0.0033880672,-0.007284534,-0.0064490433,0.002254416,-0.005684488,0.004911326,-0.006693908,-0.005018401,-0.005919723,0.0018307946,-0.0015186026,-0.0040680766,0.004238403,-0.002199354,-0.0020252245,0.00067139877,-0.0021600386,0.002933467,0.0071903295,0.00186149,0.0019189343,-0.0022229343,0.005900174,-0.000049211467,-0.0007196132,0.009090706,0.0070098448,0.0021838297,0.007519879,0.00798516,0.0034879667,-0.0049987566,0.010085022,-0.0054669306,0.010091312,-0.0028806976,-0.006678442,0.0060462896,-0.0023289458,0.008426578,0.009912066,0.004766021,0.0026928901,0.0050590555,-0.005332368,-0.0012811663,0.0063498216,-0.00089314085,-0.0075163073,-0.003451229,0.00046638912,-0.0036790185,-0.0013441115,0.00183534,0.008076055,0.0106837675,-0.00063852884,-0.008341148,0.008607134,0.009226844,-0.009757279,0.0018446983,0.010321621,-0.0094067715,-0.004445647,-0.0033461375,0.003427792,0.0048430627,0.0062513445,0.007167967,0.004276037,0.011707727,-0.007953623,0.0058651073,-0.0030536973,-0.000902505,0.008745877,0.0004920698,0.0066764196,0.009900408,0.0027547802,-0.004176068,-0.0039353343,0.009237834,-0.009373573,0.004786502,0.004976793,-0.004358081,-0.0070807813,0.0023207034,0.001260176,0.008188754,-0.0049309805,-0.009618815,-0.0071879257,0.004531326,0.0024210997,-0.0073579485,0.003806524,-0.005471304,0.005149824,0.0015437534,-0.0067095426,-0.0020563432,0.009556295,-0.0065493123,-0.008661669,-0.007421534,0.0049077217,-0.0014963488,0.0072147613,0.0048334906,-0.0042121033,-0.000084554136,0.002102591,0.004852645,0.010224613,0.0017646912,-0.0052968343,-0.007182631,0.005520597,-0.007326274,0.002874846,-0.00904163,0.0056473347,0.0037564326,-0.005066233,-0.005609458,-0.00044759215,-0.007294245,-0.0091961315,-0.0026581665,-0.005465083,0.0049948343,0.0057826615,-0.008025801,-0.0063751987,0.00088967965,0.005537088,0.007360133,0.00481372,-0.0028002912,-0.008191483,-0.0002593325,0.0003896561,0.0010850187,0.0019083453,-0.0066200695,-0.000933735,-0.009106713,-0.00994187,-0.0013722316,-0.0033444662,-0.0027353547,-0.0022764825,0.0034378045,0.005987585,-0.0058032777,-0.00430622,-0.006565438,0.0068420535,0.0014632238,0.007911596,-0.0038139806,-0.006432702,0.007450688,0.009128849,-0.0009737956,0.0071110404,0.004806027,-0.0044795196,-0.006075854,0.0077445055,-0.00022491787,-0.00043899962,0.0068017524,0.007942448,0.000069831774,0.0040479167,-0.0010420909,-0.0075091044,0.0051480867,0.0041516228,0.0044190614,0.009651298,0.009500221,-0.0015584166,-0.0023330972,-0.0017645581,0.0025825582,-0.0051249866,0.010156576,0.0049436674,0.000051457366,0.004783296,-0.002578736,0.001219352,0.002450581,0.00042703407,0.00677059,0.0021794585,-0.007036294,0.0037033001,0.00022486641,-0.0019063614,-0.0068362732,-0.00055735215,-0.005048069,-0.0056171627,0.0043080584,0.0048227664,0.0075504733,0.008450684,0.0033824327,-0.002330555,0.0066981576,0.0044060303,0.0033311506,0.0008993435,-0.0036948398,-0.0018288224,-0.0021202324,0.0021279627,-0.001063232,-0.006346309,-0.00052655704,0.0048410534,